{"sizes": [784, 30, 30, 10, 10], "weights": [[[0.005289108646200779, -0.002721519464491884, -0.0028971166961831068, -0.0017735294584130014, 0.000463688978911379, 0.018220874652784845, 0.018414425214681573, -0.001060136786903003, -0.012266978268118393, -0.004905623871955701, -0.004377487579440158, 0.012118562360337147, -0.021299770046720658, 0.0017052043714716018, -0.009874949511079919, -0.0006012413244285257, 0.008214570882543655, 0.01953526371032578, 0.0021152329965950707, -0.004126032354205866, 0.013188197841814202, 0.004235745325214578, -0.007071667568870951, 0.014604235778106012, 0.0017161440016636017, 0.006047977667503805, 8.220474778102838e-05, -0.005927288128815552, 0.004983742175710649, -0.002854978688865862, -0.011329839515678593, -0.0015664778663077887, -0.011076619800903397, -0.005911315943910795, 0.004864662365616683, 0.0016243727922749965, -0.0019438373898767155, 0.0019257630754868698, 0.017700118327508823, 0.004593521634535402, -0.0011533621843228471, 0.0011266149339183122, 0.0006777361875973548, -0.010512025214504441, -0.03398102097028454, -0.019435511051635372, -0.00995591387453812, -0.024140349227349298, -0.011734468198126917, -0.016739780417015914, -0.026874834246957142, 0.007169299007703618, -0.0021514264633719802, 0.0010027343070062409, 0.003035939560553457, -0.0008756603612809882, 0.000609577790141083, -0.017988000394103452, -0.0016426410859403011, 0.010218282029431048, -0.005453384996240505, 0.004289145798629349, -0.002766208357343968, 0.0013026594769107907, 0.002270132892832757, -0.0071632897188027055, -0.009414954075072413, -0.01829064608411415, -0.03294148927018762, -0.038400798676797535, -0.03578478965939249, -0.01972389351801707, -0.04163434357732194, -0.021335934632123146, -0.003660710545741679, -0.019956289307618075, -0.0055198400540919495, -0.010892489353518263, -0.006700772335456391, -0.004332003093565544, -0.0036762322074863378, -0.004550863456255618, -0.008549856972657758, 0.007470601094297997, -0.0036632067575205467, 0.001744940353708807, 0.012830977216764626, 0.005454958417722817, 0.0049070238991790905, 0.0002637949219624198, -0.0012213841681078567, -0.017460745373714663, -0.012094030479374459, -0.00758809258154298, -0.015859837355988837, -0.024144488532865663, -0.08187571059438029, -0.12933536653518846, -0.19871304007507767, -0.19437536218494444, -0.11199592651106152, -0.09584760101677849, -0.09766906376270056, -0.025771530743238596, -0.03240323252451573, -0.04265529248234174, -0.01785679237281178, -0.014291682669133212, 0.00243559621685314, -0.017030514218372147, -0.008912618632360703, -0.0005592972430967358, 0.0033093905895670126, -0.014131803454041239, 0.006305908418399525, 0.002156666609567689, 0.008719469568383561, 0.002690849744241916, 0.014978254484666668, -0.03416924619536492, -5.053452591797645e-06, -0.020466495946215194, -0.06642920468890845, -0.07899966193716268, -0.14733942801111657, -0.2381330910847682, -0.2645466607639867, -0.20311939873378534, -0.013858654025284411, -0.09284923970372867, -0.11539419411089474, 0.03322988191898859, 0.03310369918900832, 0.04294791242924369, 0.0799388122392042, 0.04666237928726134, -0.036616622365980935, -0.052455288288464526, -0.01385278423452917, 0.0004094469902841401, 0.007391177054689001, -0.004605340804184306, 0.0017858849736515343, -0.009704029014443229, -0.006020235430076951, 0.012188082287068528, 0.0009293256221667585, -0.06020106626963934, -0.02266333899792248, 0.015071633537173779, -0.07442292601221635, -0.05288925480995224, 0.07210115041512875, -0.12851444020411185, -0.03646463885716966, -0.09404475997442906, -0.14531046587111077, -0.09183136373387049, -0.14761866453655512, -0.21821726089069432, -0.1637160243875568, -0.12988103917255886, 0.041019492693923826, 0.0662145757558657, 0.037542088480419296, -0.023841543831977792, -0.02668759624593194, 0.0011508892852435488, -0.006285032967813542, -0.005277795593459001, -0.0014911333064866756, -0.015140351131921961, -0.03211230640317536, 0.002397849354065954, 0.07766995871503832, 0.04497911927973989, 0.08638584237045517, 0.0762319334495494, 0.009836878774393158, 0.011842658929932979, 0.0861862516321498, -0.10690831225729783, -0.04227719449870105, 0.049922138841670044, 0.10888124401267406, 0.07311097600218831, 0.04993112774173038, -0.11036298336849916, -0.10920290286098452, -0.02204356995933958, 0.11782520040535156, 0.013231981004723913, -0.03658286794240649, -0.07670294913279957, -0.03140304606404881, -0.039565524100590846, 0.008673446034084837, 0.0017276391306434873, 0.0038276805398238865, 0.011850958637933121, -0.03677869976359096, -0.06940014108186149, 0.03412651041701514, 0.12200834255365785, 0.00457702073939389, 0.1952694052941022, 0.08736362319003672, -0.01416214984999526, 0.13262628589337755, 0.17886837450130308, -0.05537960549874648, -0.15816880922750476, 0.08983091297995789, 0.117246833293317, -0.09353741130185432, 0.07107691179830197, 0.030840692500699474, 0.00654166285785575, 0.08065717751766027, 0.04597346660103169, 0.015972131325960988, -0.02031988511036166, -0.025386897560933555, -0.001871925023900331, 0.003467009778651644, 0.0028079214888957135, -0.011742238624502395, -0.01590311537168038, -0.10321666089716172, -0.05983911279064847, 0.005915328195556811, 0.14911757792055885, 0.1697395759550238, 0.13448329079537538, 0.015179015065130946, 0.1103886037626952, 0.044832370464543886, 0.02761017129505342, 0.007620638548644887, 0.12602579574890252, -0.08056052849154045, 0.034426077826115876, 0.14898073323161695, 0.009839129724968464, 0.02748677208372783, -0.0864764149826782, -0.05865779745304718, 0.06804979756230589, 0.02247030054696419, -0.021407021104251266, -0.0527538267972737, -0.019568427098250536, -0.00743215678007871, -0.0045797058675454425, -0.03510988076453895, -0.0391899677788078, -0.10747272723753738, -0.061371099588962925, -0.004789742525296748, 0.0409387384696234, 0.008338237326270564, -0.06937225035770171, 0.06163165848160045, -0.02078729517050901, 0.053391120278153244, 0.05193210315125533, -0.009906179517429276, -0.0382452341658189, -0.06395356072313149, -0.02881525890861408, 0.04596850933686964, 0.03204820639583503, 0.01024652500160131, -0.006544321563673536, 0.018839052526872523, -0.025412282884179443, -0.04782376841597366, -0.1468495624198599, -0.059405630339640095, -0.0033158246666768515, 0.00548126809530577, -0.004404429758012825, -0.030451737940162545, -0.04510512664958934, -0.045181336380022794, -0.07572515274094943, -0.061708091334325935, -0.09704947023083035, -0.06502449772010073, 0.02217995624973308, -0.09584135340884412, -0.00834360938564039, -0.015221541023811722, 0.04325858092563404, 0.007192465296515516, 0.015909071607774855, -0.026221265493869696, -0.07549564670051183, 0.010647146973505986, 0.04467006968999654, -0.0796800773918229, 0.016513044575078805, 0.07591151788419793, -0.04878410845478465, -0.07545883992821532, -0.09300657909180657, -0.07391087513376081, -0.009103568287001672, -0.00787532679185677, -0.0009714275010568426, 0.00037913916146523145, 0.012970852917045346, -0.03295958703040464, -0.12270261554169329, -0.11069995626473324, 0.01421648834157519, 0.08240275011040608, 0.08882609166457163, 0.09267748739479938, 0.1101888128221025, 0.08564720769569442, -0.11331196380577568, -0.014744654923806303, 0.04443419379671072, 0.13613692037021985, 0.0242653187062529, -0.022778023806258194, -0.06962644886113839, -0.06094633763557264, -0.019126198086911704, -0.026426082919009962, -0.03994020021327709, -0.012247652382784292, 0.0009992880197407514, -0.038916537768509986, -2.858479488738038e-05, 0.004424246112917314, 0.00034583116607804287, 0.0036187398132593433, 0.02333635829790404, -0.04998233284999231, -0.1799360332746562, -0.03854453053842245, 0.0924872045069572, 0.0985063544808054, -0.02653972507298311, 0.12482599234524132, 0.11273154449644386, 0.0953432798523862, -0.00987889587324985, -0.032707782701144404, 0.2610168593067603, 0.13287134733981112, -0.04593090094395406, 0.0776692124382735, -0.02667971458321656, -0.08882875189082287, -0.05367660523783277, 0.0236733475273645, 0.013919340402512706, -0.024798843935168662, -0.026839201010942237, -0.02846901599394699, -0.0016172461769819312, 0.001571292546264844, -0.009617804409107396, 0.005558284003765449, 0.025453552166187735, -0.03145779879834643, -0.04004504792138911, 0.009693631139032747, 0.15989232993555857, 0.02175671958994377, 0.08130736384498916, 0.14454645361850307, 0.04421132009557183, -0.017041671872008137, -0.11954377627179832, 0.09512562378466492, 0.22753920914617387, 0.16507695857239424, 0.04873232686574393, 0.11055589969910358, 0.027668354106373142, 0.11622507289395795, 0.074335796402074, -0.07266411048286146, -0.11674022328507043, -0.11329538867857915, -0.06932666731739982, -0.05067614143587728, 0.001571534609336901, -0.004700006751600546, 0.02357306118548783, -0.0013945930015101008, 0.0011678648112751402, 0.0500890426734225, 0.0005022144302150223, 0.025265061648530235, 0.11268129776703949, 0.05804650326193765, 0.03874524621940162, 0.050135308393423506, 0.002218551462716997, -0.01214573881444354, -0.10628293873177604, 0.09589565404788652, 0.13123280094768427, 0.09331090352895244, 0.10015285904115928, 0.12664075481506343, 0.22862338239792646, 0.13348167390086674, 0.03380856257413971, -0.06800275536845908, -0.04772546991771845, -0.11191481220369356, -0.07186982420359925, -0.06670244600898327, 0.001719046996431355, -0.015932299169632746, -0.0003930164518354409, 0.0053006167054060836, 0.004444523620218467, 0.040974812954918914, -0.07982118419351453, -0.1271255402119697, -0.024377086660409428, 0.03756648351256935, 0.11481335347511605, 0.11040300733540002, 0.026258354814919796, -0.09942690951555624, -0.13824801630847366, 0.21937254814115903, 0.24042111257367968, 0.1818014373236231, 0.1728565470102599, 0.08638838953538625, -0.011886735311494638, 0.05970585028967662, 0.18141217244379623, 0.06056617362089217, 0.005090905426260278, -0.1638067536181019, -0.14060964930573566, -0.07371763274410574, 0.005307355352551353, -0.003630608300816733, 0.0029538234708630802, -0.00928519806137955, -0.047822785888707205, -0.05104130068071799, -0.04318934465073719, -0.15252018067527068, -0.13409353756349565, 0.05169501752737371, 0.03604896139164408, -0.03711216961293431, 0.03686043095761889, -0.001518279364014353, 0.0019881714627716573, 0.3295851058107104, 0.28376550605046286, 0.13108224217014783, 0.07966206321259901, -0.14231541843836076, -0.0038796542553246644, 0.08838338544119682, 0.030611036629356603, -0.1642510475848773, -0.1886851019090334, -0.24568384777988855, -0.2025131029554437, -0.08224837427564895, -0.004133475721250128, 0.0018149879304979679, 0.010511561567290143, -0.014537870625244557, -0.05549503981325054, -0.08082690235613661, -0.09697722328366297, -0.2149235739711805, -0.26976347815508317, -0.12760223751863195, -0.1304624773952595, -0.1260948822800692, 0.06120521253031313, -0.15452767853550348, 0.029560294106320946, 0.11553525514478093, 0.15909703652060853, -0.014899681393322067, -0.040365599518894214, -0.09424807124058385, -0.08588632963415448, -0.04814878840308177, -0.10407258347138468, -0.1715172241168376, -0.11686056096323282, -0.17214839509864008, -0.10253391430218094, -0.06237569801973758, -0.02007720952545886, -0.009864367169290969, -0.006522091848923935, 0.016955259832247944, -0.043188696366011546, -0.10472130164479118, -0.15959000210079108, -0.24708537548745357, -0.2039091831605917, -0.10695401854402367, -0.1644693566596965, -0.11340275319102101, -0.10380507163811455, -0.03604003955297895, -0.003569049208740247, -0.024791382019329396, -0.05593861595744481, -0.10765618068848626, -0.046344673060107214, -0.14547475269630672, -0.18258012774622512, -0.19504216487398357, -0.25772723665718134, -0.27588619629819666, -0.2974127878267695, -0.18824803044308208, -0.08358133985381958, -0.0017841807466854, 0.005817151861973644, -0.0009879220719162909, 0.00940996658391523, -0.0034641074355156003, -0.0023402087961625203, -0.053720763390636396, -0.1556369670087416, -0.1986525046325242, -0.14169872915366413, -0.1751764273843387, -0.17953681860527018, -0.14767113441690935, -0.06205523871236387, 0.018861760282290047, -0.010611564346577312, -0.06123134597960931, -0.13289199132359839, -0.18031672157979964, -0.3596531213711828, -0.3739845736146439, -0.3968040611876359, -0.27788087845761006, -0.2277406889133478, -0.29091839763367916, -0.29318529441292246, -0.16435613577608374, -0.055992538443629836, -0.06647033121230932, -0.011704375205344397, -0.002138550030164566, -0.010456301295870541, -0.01795485036751804, -0.06286417752841793, -0.106336131609651, -0.21352288618962625, -0.21053541090935524, -0.22098854236315202, -0.2919526689267443, -0.08528943817958709, -0.10942200588155435, -0.06730019656106884, -0.023264424696619792, -0.0038073277325064068, -0.02948741390239604, -0.21874003774122075, -0.22816008460444834, -0.4011453481263398, -0.3637682189215279, -0.2523617500989824, -0.1505482896152282, -0.08778709188526214, -0.1499792105419408, -0.15582795402594027, -0.10083346653620068, -0.02235440610072777, -0.02729186998133569, 0.012085618391152301, 0.007241328799450891, -0.003387672351897005, -0.006046614799851807, -0.05472430294812042, -0.09361761177178304, -0.13995207457538125, -0.1499984086654658, -0.09780274756258833, -0.1476063644033907, 0.03639155622516806, 0.04428153805527425, -0.09924842124823752, -0.05598113762429112, -0.1396869775558067, -0.13088034130637513, -0.19940622357034707, -0.044183586552967856, -0.18602807463503587, -0.2844377451769643, -0.13960678502242316, -0.10717540399492761, -0.09236950803685699, -0.12901254110906757, -0.13541653550032498, -0.08613303170868139, -0.004704750615260736, -0.0009168549616613304, 0.0010833283262569424, -0.0013878402875807602, -0.004980901837562246, -0.010002166626272421, -0.04129277645565684, -0.05114943429383104, -0.06403269912142809, -0.004549196400511956, -0.01145780433791671, 0.037788841799301656, -0.05004555671846271, 0.043121799136964935, -0.08609767704911891, 0.018869358214475742, -0.0494658048789651, -0.11101904440040615, -0.013799709612402514, 0.03567115391836299, -0.07250411692540076, -0.18478824985448833, -0.05869881333648435, -0.18420353171072582, -0.059468151638245925, -0.12356031538909736, -0.10886064751780695, -0.028596669015011268, -0.009132593681747975, -0.009292567057330886, -0.003754983313401883, 0.0005099285377422919, -0.008243364728635247, -0.01448087195941667, -0.0970476571165666, -0.0578832026239749, -0.06481456222210487, 0.03219144231579249, 0.0630826566009988, 0.03607879439763688, -0.006239658007818692, 0.059723249033954234, -0.037069306737758684, 0.016362466592702563, 0.013027635184776495, -0.1572905421006487, -0.221815566516662, -0.16433363684701008, -0.16957572759005027, -0.13096311537427816, -0.2218535591549952, -0.3039987714338434, -0.11611793148136078, -0.10414784116729153, -0.06478888211036533, 0.007469559102187399, 0.005275182377404346, 0.002322069920701763, -0.010858240046997064, 0.005170829452475474, 0.00023995527959139369, 0.019155152028087846, -0.037566338767929294, 0.028621564112974902, 0.16490829465384343, 0.13885930086076637, 0.11328764867526117, 0.024844873057958745, -0.06602387519702298, -0.09540222371617255, -0.17712898431556606, -0.22539021318325653, -0.03236955934475017, -0.07362340277557061, -0.1565566020219865, -0.1688715903659952, -0.07865638333388392, -0.05913001786886188, -0.2074393831137747, -0.2109794997730565, -0.15069949139031222, -0.08067637108985014, -0.03727070682924028, 0.003951162325600756, 0.00469267700053381, 0.012637639530787472, 0.009109805892666495, 0.002692282083174808, 0.011440300390386474, 0.0009275712569368942, 0.025335600776313413, 0.09732968045198626, 0.11498423027897009, -0.004976692724391405, -0.016328667323239454, 0.014263702666158048, 0.0026416194273358733, -0.02653925587923338, 0.01310044145736811, 0.017779193299799205, -0.030196023924661537, 0.019471320559319875, -0.001078380296474566, -0.05104288968694244, -0.06193695244236366, -0.021730868518013032, -0.10583943860337204, -0.026919879483555106, -0.055147463008894074, -0.04031698902850036, -0.007526219349220512, 0.0032329009610891847, 0.0006597859095356911, -0.003042726900015444, 0.0011119306532822388, 0.014334087150855527, 0.005333221497578364, 0.01980241118922185, 0.016483852219264745, -0.00969222801035941, 0.00037663408396943816, 0.03022507247411032, 0.03959532448501296, 0.037557701372077805, -0.008245396271908463, -0.03676072825676465, -0.08520994465231152, -0.1089449373771531, -0.07835477416211345, -0.00347480100278006, -0.03868515529190008, -0.05441377988151561, -0.06647312559219296, -0.037982283734371645, 0.003802711366107543, -0.019241532010298153, -0.05036212696433784, -0.0430319659629587, -0.00742510111488577, 0.0027920901211144025, -0.004039463104172342, -0.0019935152226749353, 0.0020691210599132893, 0.0019814620567921593, -0.025062175956187104, 0.01503107420192681, -0.006393620127740913, -0.02289558785201233, -0.011567543274825643, -0.0003784905663705332, -0.028177101690693523, -0.02399743502188926, -0.005628373870007891, -0.0005466613345110607, 0.0009440516104572822, -0.019942725319779437, 0.004533302169974789, -0.02102158475706805, -0.02037086784817757, 0.0017260938319193936, 0.0039960952985241055, -0.003991869606481888, -0.0018351067188323517, -0.011445642459007145, 0.017491432741142076, 0.0022128521672748185, 0.002873195556301564, 0.003915186493151319, -0.00449066196560968, 0.004551566715410371, -0.001425820752311442], [-0.006920737531035716, -0.013800980205163798, -0.00443495322224807, 0.0020906489009361643, -0.0018868240418862341, -0.0007630969663680355, -0.009774363194784244, 0.0009629823874386781, 0.011436267434143077, -0.004488258627838711, 0.00820629416937472, -0.003425940361850817, 0.006694929328857088, -0.014830461733650952, -0.0010875600835182921, -0.0060860135194892055, -0.006713292964371915, 0.009333329934960154, 0.01025669544398213, -0.005743799935080456, -0.011921160653671468, -0.004290012322337831, -0.002601798998935215, 0.0036244135132761056, 0.0005337104490117047, 0.0023467684804960543, -0.004909946295506978, 0.0005919333896595789, 0.0073127660064386145, 0.01120230292700236, -0.006654294907748667, 0.002991963586096536, 0.006033543554865043, 0.009434184206182635, 0.0010696235267254107, -0.0029250078367674148, -0.0021238956555100323, 0.011109198007035933, 0.017064732500823788, -0.001907464404790432, 0.0020002505502637775, 0.0011263947535773823, -0.05218017142202084, -0.08821127926963779, -0.01653206305033337, -0.017256044174632116, 0.0022908951850828634, -0.007581830692610494, -0.0034404194153416934, 0.01804858616793032, 0.006470036595299321, 0.013648642181351757, 0.014548435960401274, -0.0004497143034645223, 0.006742931239604473, -0.007158900250722841, 0.0060462423570567915, -8.559153601005062e-05, 0.004627887064218665, 0.003817256789914675, -0.014125951152969106, -0.0020561848153412385, 0.0053510185379598025, -0.0025535881119679894, 0.004175125876926423, 0.028411153060316312, 0.030675840489592536, 0.012169290604436665, -0.04071967720822629, -0.024171549259859048, -0.029373853799005287, -0.10681039208258762, -0.023037978812036616, -0.011116621695687688, -0.04061604134126202, -0.012808064281728022, 0.034452873150770225, 0.011922357624715092, -0.026312040151313477, -0.026049010096814765, 0.011584833524633914, 0.01962163454605191, -0.011274649957416847, 0.006768995558076924, 0.0038038503955267616, -0.0017284210996846802, 0.017432611880960867, -0.004780412209789852, 0.006764824208086816, -0.004323585696636938, -0.004231580159933532, -0.0037080191461856013, 0.06609238116278544, 0.0489124155461888, 0.15169616027175056, 0.19912414581616097, 0.19618261785668745, 0.16650531287702147, 0.18786426541254328, 0.097920400528124, 0.17221738467244202, 0.1637093663257899, 0.04275134492443047, -0.009348113070198982, 0.02174833978601145, 0.04384789734544697, -0.08273739754290807, -0.11131091083493311, -0.018839003399844817, 0.003033735765222553, -0.003029203229571324, -0.001455166349771534, -0.027039630903073313, 0.00519724370059325, 0.004350962306726072, 0.0058830299723715675, 0.012613200309633603, 0.03224607595830999, 0.031356750104185135, 0.025930206913720562, 0.06339997221469913, 0.1122207572202131, 0.27051423528298296, 0.2543356962102748, 0.341371725404031, 0.19790191712403044, 0.17065094454492083, 0.10443214565466347, 0.1324384062691603, 0.10139914056715836, 0.1079596760582556, 0.07131159876848962, 0.005560714293382759, 0.05447246058299636, -0.10178922654526369, -0.12539188650027647, -0.012379519704596978, 0.004224846539395896, 0.0006096517826413552, -0.010540821030810445, -0.016437218437186825, -0.01582050312967636, -0.008287724657491837, -0.014438025230890402, 0.00767829775011565, -0.005208228636933668, 0.01583793120220808, 0.06517242406463597, 0.04332690685717197, 0.07749553159183512, 0.21758461540750054, 0.17190458909028417, 0.1987937830414458, 0.13999936625786227, 0.016929359934996852, 0.061755280172642674, 0.17370047655672347, -0.012571709695342657, 0.08612778449909948, 0.009363786271373475, 0.07289340406175006, -0.03502754047340998, -0.11886494999571669, -0.09187725471572279, -0.03187732322433911, 0.0009712362674272261, 0.00983890359781724, 0.002016789272001467, -0.011188120889419563, -0.0024772127628237355, -0.017057396120956383, -0.024901453225435067, 0.06863546699660461, 0.1176438416417188, 0.12371813469043297, 0.07024942838982424, 0.1547857072537918, 0.18227607287159633, 0.24716772631850958, 0.17075940260075081, 0.04644162898874411, 0.2801565943288431, 0.1186422559927674, 0.09107078352557936, 0.14171008946159797, 0.02681821425773892, 0.04262437830389097, -0.00748781764939801, -0.02807587376539666, -0.019650056579313433, -0.09051972203047885, -0.05051703248466749, -0.09485259688648714, -0.016675125966020447, -0.0019722181095627686, 0.00037936432859651174, 0.0018230529016268332, 0.015444243705623407, 0.0006735872111549515, 0.042072718904572474, 0.19098299621268489, 0.1735205048586678, 0.16799173067011142, 0.052822313690396486, 0.08584356838614657, -0.0171960645894083, -0.0010326622152434, 0.08177994159205061, 0.026887294948860368, 0.09439996496366883, 0.08575768959546676, -0.042233869756662094, -0.09431126141521971, -0.013896279611227354, 0.0036427444120848283, 0.16917314221593152, 0.08492782990400942, 0.050114376988908166, 0.004953096800893108, -0.10572668238348065, -0.1042427291613206, -0.028835963362431213, -0.011334571855421399, -0.0030666724103197616, -0.004567915494696878, -0.008743975470269958, 0.00420173694306903, 0.049357795663953014, 0.18583214417008567, 0.1531619081859035, 0.09121803446360276, 0.10352714974321435, 0.07628185095399906, 0.08215400116653598, -0.0291917866670299, -0.0840759357649056, -0.03836375727301978, -0.026659594780069375, -0.08349817441294222, -0.023862771793180967, 0.1597322095668174, 0.072982779205429, 0.060688620879604534, 0.12262678241069512, 0.032252210396881566, 0.07141627562595146, 0.02698268618520673, -0.16849904285071263, -0.17624549535235934, -0.013451579218724414, -0.001787337583501347, -0.0033898069838538387, 0.012396648551708354, -0.0021545391308871184, -0.0038712690590177014, 0.03760162446585641, 0.140339098520403, 0.07354513420427945, -0.049551329346142835, -0.11129830233571494, -0.18209915202601915, -0.25024457691448987, -0.36472266169534745, -0.3929505541609659, -0.25323884243602557, -0.3525226336973143, -0.08778942849297913, 0.15002542172917593, 0.0550683257893574, 0.07729077900833241, -0.010970489569941977, 0.022905122319863153, 0.023818875371066167, 0.049579867875843515, -0.09104001171418327, -0.20082443584726034, -0.19134978077423898, -0.0127166348010176, 0.00031817988426035757, -0.005728159417373127, 0.0007294884703429195, -0.008482793311098774, -0.008203506247155594, 0.014283777485956028, -0.024030318706585792, -0.14407026061445313, -0.29160250372372043, -0.509181835459931, -0.6392229888819634, -0.47102900503851486, -0.4571599815443297, -0.3298094833333128, -0.31562384740298605, -0.25430234742827834, -0.11099890818501408, -0.12370016081596164, 0.07905416026474558, 0.16834802582830363, 0.06412298341746046, 0.11798078315949942, 0.21196633484396135, -0.0172356445464112, -0.04927440138674409, -0.16591018232632562, -0.09439748333709998, -0.0028690126104351367, -0.009116650754173394, 0.007728869222435017, 0.0034572629180685387, -0.0018620060321927303, -0.012649918725850775, -0.02537768153404023, -0.16749191533691726, -0.27318918542945575, -0.4315795894839691, -0.5183681435068329, -0.34165361799383165, -0.20227649493083677, -0.11635186515350913, -0.12799894791242367, -0.05253344171085884, -0.14484306036687572, -0.14531933540569236, -0.2785461863853902, -0.020840868934537325, 0.23498090334094637, 0.1256903045780051, 0.17825194240889183, 0.18579915069839925, -0.1832969314473986, -0.13865359526900614, -0.11451140134915823, -0.030327816016759407, 0.027756201365332106, 0.0032476318489982133, 0.0059862414545280495, -0.002372040803121645, -0.0068453240214249676, -0.01027997752256506, -0.06074433665178721, -0.15370574457069588, -0.22111302954413392, -0.3297407663035863, -0.2830167883779768, 0.03131222032247116, -0.009777622704799377, 0.15961770555932098, 0.133310492753945, 0.07546018927960853, -0.004014365291096968, 0.060269906818608145, -0.15011995313247126, -0.00017071748422673827, -0.0874004990203458, 0.008644151691187419, 0.061657617250386466, 0.07941925476031193, -0.019659971460670788, -0.057761851688105645, -0.10075742594582483, -0.003328063557517298, 0.022846030700026575, 0.0013556844451442186, -0.011765394706043326, -0.004990248864425176, -0.009977396429164535, -0.014163354569995769, 0.006279820596546164, -0.041094024153823905, -0.059876817477512674, -0.19356090224754893, -0.11275816067484136, 0.13577134497759238, 0.09987461602699933, 0.14204350728804727, 0.06256988670861573, 0.0610408840490755, 0.14700814721331432, -0.04827851622805672, -0.022123195460406742, -0.09099803155952993, -0.1288022241335858, 0.004127090707253282, -0.013725948027112213, 0.0755353282273431, -0.05540928094800273, -0.054135368219984874, -0.02717823843630307, 0.021168956513834505, 0.06410405976553245, 0.012052379282512758, -0.010134783899505083, -0.0030298918338665356, -0.013394953191553812, -0.004737809906441631, 0.06940631353170995, 0.1123582251298658, 0.017003490299647966, 0.008449676804319189, 0.12015029178728553, 0.017074465224502924, -0.0623917982516511, -0.1269680702539136, -0.05739096514061946, 0.04377136163371787, -0.026587879139385654, -0.04961202061542553, -0.10744827886630298, -0.10568183666771254, -0.007829948779286534, 0.08135646137287364, 0.15462299038997482, -0.08670831050188701, -0.06859828263387117, -0.1382141395020132, 0.0053192496621240065, 0.06758106213470703, 0.10233642844034971, 0.019264294750460396, -0.012830463311711001, 0.010044687725698385, 0.014865245428280927, 0.0033209927060851435, 0.0826027626032571, 0.18028208329407405, 0.09745916422738139, 0.1331135658799668, -0.0059298413038967, -0.1700991184794765, -0.11371942250483719, -0.04505921876489421, 0.025275111632621534, -0.12069461633280429, -0.04024742540285121, -0.0831848741590155, -0.07307692339278749, 0.0654353095747219, 0.042115661827132486, 0.04268924078569141, 0.06200749339794146, -0.07753670723938579, -0.10702497533196799, -0.05054912988522806, 0.025392274734511402, 0.08305422316641062, 0.0646597708758417, 0.025319188760484262, 0.000565925149857385, -0.005915086202471254, -0.0005713653268232059, 0.012952680557876765, 0.10194448423453537, 0.06512728751976174, 0.030978745075669202, 0.01997432333511518, 0.04456117226055049, -0.17052279756722222, 0.004515322354265461, 0.014886575460404188, -0.06722997726649556, 0.033156882945208424, 0.06078065344439955, -0.10288149549692187, -0.09421522973923913, 0.10407945775444785, 0.11229883780908882, 0.10653805486804539, 0.01963866088999345, 0.03925790634992262, 0.08019322890311546, 0.09121621894779451, 0.03536138877860482, 0.09877752204361238, 0.06365249667602696, 0.03617933873647578, 0.008393709735912866, 0.006439442166541112, -0.0006778646858851158, 0.019231700591616052, 0.0765916679992137, 0.1264902294891517, 0.07123318340562683, 0.029453959250453896, -0.05651691213024248, 0.02045403276460036, 0.012206312872553977, -0.24301168976290125, -0.19521591767951563, -0.17096593232471397, -0.09418738202922246, -0.18504398265070438, -0.007579287429189881, 0.014872032410219718, 0.03066122486827093, 0.10384548864140182, 0.03841636798039023, -0.042813097042842405, 0.0370010390503818, 0.06636552572557215, 0.06115893634032176, 0.010597118128681353, 0.052506768191412964, 0.03442670112590802, 0.0063085895278794475, -0.0008015524251807645, 0.007343470277028702, 0.011671990396820679, 0.10473435402243561, 0.1940931336905258, 0.1701250288424814, 0.08911713105637598, 0.03106354030898015, 0.05319625979935873, 0.029495103470391925, -0.10466693113936114, -0.09495883307536794, -0.02618562154136007, 0.07736748835864805, -0.0516675983644736, -0.01798864278141081, 0.03714217775143012, -0.024092072221280004, 0.13853925888678165, 0.1442288815601287, 0.02621799380636016, 0.14301707848861375, 0.16873734387120667, 0.1010954721648192, 0.10239050503479703, 0.05674863766296985, 0.024507275480004857, 0.006021320678250616, 0.005466682868748295, 0.014948921698835835, -0.029591608036300343, 0.11075282371798545, 0.12278128716523415, 0.1890725524962184, 0.050442087734182295, -0.005348763458178996, 0.0010383627704322804, 0.11015743888426151, 0.0187723489912367, -0.08223039722661858, -0.019062206015173323, 0.033879481364727904, 0.032702310530737806, 0.08614132484352392, 0.2074029875835401, 0.06948257770131265, 0.09695496719115412, 0.0017651043445953453, 0.025232616993559904, 0.11517456077989324, 0.12088703205274061, 0.06384367146017061, 0.07795644057131021, 0.057433217540927464, 0.016248945632408404, 0.00317365366502682, 0.0076999733035273904, -0.021576549849190444, -0.020545824780115404, 0.11841432930852068, 0.12982253169945265, 0.1186517953720878, 0.08801469106540095, 0.008198932505917307, -0.01672209826701264, 0.05108547678521538, 0.03696331218595276, 0.04937349236205054, -0.052841924423253445, 0.017264888312890685, 0.017196261824740714, 0.027532366624400163, -0.03526160733564607, 0.038024532124745235, 0.03217481852338735, -0.0313344192501877, 0.018751333652993623, 0.15751945762350822, 0.08175963956298624, 0.052059791442298914, 0.03442975807599597, 0.010115163758969106, -0.006595449449062601, -0.019711946430590245, 0.006366922110726181, -0.010255378158187169, 0.019645258773107705, 0.048830974463837405, 0.06254251375617274, 0.05084198802665289, -0.005556344281184074, -0.020902040674571198, -0.012268788348201314, 0.07020542748964757, -0.033004460564247225, -0.1230346153347686, -0.08574924738221891, -0.04478501913373027, -0.05640364265317057, -0.0543026315699064, 0.08917831930261871, 0.07352143749727742, 0.023035249273919207, 0.07228998021877174, -0.09854750511632725, -0.02162009759509461, 0.07217050062532049, 0.07815285909387716, 0.006715132239310793, 0.0016029068334832614, 0.008397434230361975, -0.005673308819500295, -0.003678858374115742, -0.0071487967012815535, 0.004635296351956824, 0.04033238137066651, 0.06898442651845663, -0.03114727365709721, -0.054821924111004686, 0.07089990431979148, -0.029298856854050856, -0.10158853561109421, -0.07687537926245468, 0.06684550754391858, 0.049712589502855294, -0.10428026545832003, -0.05451174822404059, 0.006863852988746527, -0.0574271712212106, -0.03393449534075083, -0.030125915618546162, 0.03592480889731436, 0.005100487717842177, 0.07053825495339759, 0.05411356734417061, 0.002104701104073849, 0.013735920017072946, 0.009043422666864543, 0.004957335611177445, 0.014306374157728306, 0.01777085929902004, -2.439469108573703e-05, 0.012835776154411822, 0.05643932901966176, 0.04489359048748386, 0.03269811571297958, -0.04117629415106648, 0.07936510921008114, -0.0829580662003334, -0.00851678735062807, -0.040645232445860435, 0.11327911235336267, -0.12144948321755838, -0.011833539183429465, 0.07510426413369944, -0.011067910509873838, -0.07296318487244663, -0.17165063053857238, 0.038026582257126074, -0.05750518025455676, 0.024606865317679045, 0.02801864680982568, 0.004497918281333397, -0.005114928245431313, -0.013347418610404057, -0.013573797292704892, -0.002809200153758909, 0.0116383385891665, 0.013274635828404935, -0.0025493094711820374, -0.0026249065347693818, 0.04433336699248622, 0.06678241966386315, 0.08164840173991322, 0.10061952243445192, 0.05522470466673375, 0.04223673961383906, 0.010115681972681879, 0.09859260032103642, 0.1156609897697043, 0.011717727482399607, 0.09612054499657603, 0.22143786877340302, 0.11702094916850125, 0.021669069962547624, 0.10980832948705815, -0.0180044639423931, -0.07235910046172929, -0.02785718316529261, 0.028323937148455002, -0.044249860490340534, -0.03882431857962763, -0.008353353140710002, -0.006977015976591055, -0.010781446264960888, -0.000316412281144735, 0.0032793066161241153, 0.0005798182112793421, -0.0007056423509764044, -0.0007366008167593172, 0.011099570284534404, 0.041491932765081396, 0.09106707553925643, 0.10799008375965029, 0.01208951740065047, 0.06153790399067537, 0.1745331790345114, 0.1522943434361593, -0.028520558450336703, -0.030414680290289854, -0.039287319641497995, -0.025868075571359523, 0.0032665486152849976, 0.019624450404701746, 0.007365003055185621, 0.007484671729053079, -0.022320783874417126, -0.03764973114827818, -0.01906475986353004, -0.012627435589523756, 0.0031234824397048644, 0.0029405885597498494, 0.000993844821425041, 0.0035425736532437918, 0.004513565293755724, -0.001932572787233781, 0.008075296836012213, -0.00022240459318868558, 0.004496239949891461, -0.005125839759716766, -0.0021697055539526156, 0.0025986854562944366, -0.0037670926128937545, -0.004312771145035795, -0.007209724863762511, -0.00032213457537013247, -0.01568960323255232, 0.005365531300358162, -0.024389136514634795, -0.009931513821828258, -0.014207400817586962, 0.014388374357471005, 0.00809415370531364, 0.004025335705810671, -0.016432026072626754, -0.005660210007268536, -0.00392285840881109, 0.0017546615729502678, 0.010523066731832698, 0.002325267853037802, 0.004492254258593553, 0.010189536101166456, -0.0021365436086981607, -0.003944525310083658, -0.011867919231737932, -0.002404661396276688, -0.008022603938630427, 0.0022359661134880265, 0.009183626126868035, -0.011637681915972524, 0.0022468043835632973, -0.009796179014227035, 0.015982610467942172, 0.00583454952070742, 0.012303434200587276, -0.009554012943690664, -0.008119519108337954, -0.015632980956723656, -0.012131543373297703, -0.009785206164191393, 0.0037830436420416636, 0.004027363812264383, -0.006352474237747424, -0.00016097695571674767, -0.003934456078069515, -0.008864086301820638, -0.0007032466253957243, 0.004633343600619369, 0.0003912125391042235, 0.0026347549305784264], [-0.010053177553565235, 0.0014574564706283158, 0.0010173881474376406, 0.003403110872539775, -0.003413466322074233, -0.015911116699562033, 0.007863526137480871, -0.0073143822823004, -0.00768427422567724, -0.005883555055953303, -0.012665107350114753, 0.0008411544378496364, 0.0016418346963999835, 0.002951613227950476, 0.018251052430120512, 0.002437123970336394, 0.0024803344772256785, 0.006511185461958714, -0.008692076769475386, 0.01203260456557004, -0.0016384510923026577, 4.317108195652921e-05, -0.006203111258610857, 0.0024166328583779544, 0.014600671288316902, -0.0007343526305960162, -0.00578742754219294, 0.004986622023389422, -0.009475148196896268, -0.012557706154310955, 0.0033058822933761996, -0.00010961883328789213, -0.003546564188672211, -0.010668548102257949, 0.00013172940651063104, -0.005278146631259777, 0.0006489516176271254, 0.004066916555872256, 0.0021591048199748977, 0.02298247744319491, 0.008927468533975774, 0.004371804180254182, 0.013523474973007345, 0.008058811160300453, 0.02910093047121378, 0.015736883392004, -0.00519567635693446, 0.0037158278673126454, -0.000847900936189615, -0.0038197547592802488, 0.010148762374432494, -0.002835344191742524, 0.0012026538997620077, -0.009298765348833128, 0.0005287241310876829, -0.006541061466622666, 1.3325199391627309e-05, 0.008982503160899102, 0.0010174733326334777, 0.0005421886806986407, 0.006525039257573709, -0.007294166807829992, 0.019787981165021753, 0.0074098644811294795, 0.028471105005768153, 0.045336035008107366, 0.026247789454604337, 0.04219412632604048, 0.05234358919931804, 0.04512736402192682, 0.0752027214356995, 0.05276229780971778, -0.0017043906084766283, -0.018054665590304473, -0.005581155391530113, -0.002529902315988936, 0.006200420233484709, 0.0077715876465303604, -0.0005288473407357159, 0.01049825776054191, -0.0011844177868156349, 0.0011647484899673154, 0.0183320693377467, -0.005362368084319345, 0.002040830319965497, 0.0018680756898857233, 0.00038365579146833266, 0.004352962708020716, 0.0013607648694431824, 0.012757675143561202, 0.007935726028722308, 0.0003381715868417941, 0.04457423104297931, 0.15689195604579137, 0.08714084445978841, 0.12027965967188496, 0.11522181818460317, 0.10104521376215808, -0.006768834955714643, -0.026149490204664557, -0.04660261120479825, -0.092198235926348, -0.06167161255325166, -0.07204208275560801, -0.040444076362632836, 0.006445288274750222, 0.026315807584839458, 0.004012240712884091, 0.010454643074098557, 0.0017479731230711259, -0.005907236542152735, 0.0009287256322910767, 0.007560897692832484, 0.011215390583457307, -0.011160258757762095, 0.009872587409877625, 0.007036222775096235, 0.0015979544883720598, -0.05407160485800936, 0.010632280351265688, 0.03639009165899357, 0.07309829860334396, -0.004622720432145614, 0.0267433911764049, 0.13485737059257244, 0.22325587386242304, 0.14125558579445427, -0.15095409530778428, -0.1442432249607373, -0.16424696333958233, -0.07617539002576632, -0.06528675428415567, -0.08282596151814639, -0.05319996929630675, -0.006096022539501551, -0.012537707814591658, -0.017563534904769022, -0.0021754848618021675, 0.0034253110799056627, 0.004489574953949996, -0.009270477080472685, -0.006102474228230632, -0.004294269488894795, 0.007016360969998042, 0.045442513905664846, 0.02998687147384858, 0.029741116327248802, 0.06020379378551483, 0.18484201149017562, 0.20344914187207297, 0.16847606715959654, 0.09135309840793043, 0.018900569338344747, -0.19127013115221198, -0.32473902257838755, -0.3106115719703308, 0.021681317884824445, 0.02338555376081867, -0.032045782375263156, -0.027461870001653645, -0.0591283551879414, -0.05973803497705638, -0.12056745438528423, -0.09246982677842808, -0.05205146779755445, -0.029963809704137926, -0.01625383380310842, -0.0013000613208042496, 0.00033192442661241097, -0.000747048913980612, -0.006016418543213498, 0.010772037466729296, 0.02929463067557625, 0.013168579414162879, 0.09535361990545752, 0.14933419620535704, 0.25091504287904853, 0.24910744493099196, 0.11432240300041893, 0.05586659004014014, -0.009101297189481727, -0.305430789755103, -0.585083973113399, -0.5040113427155839, -0.07470043400837006, 0.015197009071609997, 0.20630390744378416, 0.08308091274430998, 0.04836942066854084, 0.06884632524005822, -0.027766291576897948, -0.03687348560455041, -0.11451004729279858, -0.058091861021680465, -0.01861466560762746, -0.0005318356890940063, -0.0027032715316944247, 0.010555217038616706, 0.021023903903569306, 0.019085100088039715, 0.06305141255920876, 0.10259378732459899, 0.09610158063888484, 0.14774504198847171, 0.06397072160706416, 0.06360557392701448, 0.08085326718444799, 0.07718105495724006, 0.021468339461241156, -0.27792399982464344, -0.6959557155175836, -0.213905121724464, 0.14547567394969452, 0.04428609027519053, 0.20405857938378077, 0.208164911357916, 0.061714511238427354, -0.007750150246471782, 0.005040162847998611, -0.06943402772744044, -0.038347436158837865, -0.011889081276961984, -0.006839301326736271, 0.0046558456894522275, -0.0006302782964339184, 0.0094937378979014, 0.049138373389099176, 0.035459241580225835, 0.12145362890692389, 0.17412273296963818, 0.09454863858397407, 0.1364853370528569, 0.09900751089957437, 0.16320828742541565, 0.20277343624086752, 0.13571143141898873, 0.037472713049466116, -0.2430971605060639, -0.6182620816152309, -0.13326266448220186, 0.21127235977748204, 0.10277891767012483, 0.014355026556359495, 0.021374337546611184, 0.0021235010409760076, 0.023182509030230235, 0.045678659024399854, 0.04475311380844344, -0.05565287382411644, -0.020600350323584565, -0.054245233549282734, -0.013630631006069784, -0.006986309222241409, 0.01631788524237846, 0.03758389820116222, 0.0641981172035916, 0.10216493652088172, 0.13221214381394775, 0.029489948863288058, 0.00934652861303911, 0.07067396705907449, 0.14179938224066818, 0.23458037945810095, 0.28025426605931225, 0.08322359031054247, -0.610303304207728, -0.6013887069456014, 0.11871171282755323, 0.28082245894978813, 0.07834179525688241, 0.037623152506495484, 0.14995807636683445, 0.13854625997202308, 0.15850793508068323, 0.03694272456575041, 0.03858290442363239, -0.021171548518479452, -0.06880751225225178, -0.04857772821664702, 0.0043995555571104406, 0.004272669483878519, 0.01891520085143924, -3.91297997266644e-05, 0.04697369211480862, 0.062099492457800075, 0.14551484352535796, 0.013579592237037766, 0.09136779919733423, 0.15963007210157376, 0.06576079338748415, 0.09861692206404203, 0.25080803227168863, 0.08242636307370854, -0.5549011080331574, -0.4149779557489638, 0.09785778717628282, 0.009141847100301262, 0.15255657582094578, 0.08376018859924772, 0.04997072233403684, 0.026814663241794236, 0.0700687433460786, 0.0724212160225559, 0.000919017127661064, 0.07597059466943297, -0.008038047447931691, -0.03643279020030092, -0.017776440157504767, 0.005931601665915179, 0.003732635808048877, 0.040260289338329154, 0.07255198122775085, 0.02238252669741433, 0.13010579165645067, 0.011623632289202969, -0.02822306742714682, -0.13172384143273771, 0.005949626378118272, 0.07680933107086428, 0.2811800640347174, -0.007931567752291072, -0.4752792249234725, -0.027772622425085505, 0.07113258127735739, 0.10308986394682916, 0.1246797108879196, 0.16367219832188193, -0.02697412335950423, 0.017582220487347713, 0.1318784159393423, 0.1329610825680622, 0.008521653916685724, 0.018627791708176553, 0.009622199210087102, -0.016858286689405536, -0.0025320639321986796, -0.003272757325459661, 0.01082832959102223, 0.05284515736668211, 0.10497000445415208, -0.006602074765146103, 0.07353670269813922, 0.011416249257325104, -0.07365927979526, -0.03552273767419507, 0.016516286887454882, 0.15195110397692213, 0.22669335172936725, -0.24010561026136543, -0.4435345150744893, 0.01254934650050577, 0.08790746686051383, 0.0715949205935766, 0.062327015500696324, 0.2518896236567812, 0.021080249504425157, 0.05386732683466324, 0.11936797123675738, 0.1913550535268637, 0.1037970931243375, 0.06062803232356987, 0.030960596520474715, 0.008716112144700701, 0.0019771404815035584, -0.0004889184637987764, 0.0015039053555342455, 0.03307750620311738, 0.036792242966893214, 0.03321249145344, 0.05986359786689724, 0.13741465534376587, -0.03645592050840349, 0.08917683257812548, -0.04092091543145692, 0.08147080957298325, -0.03901326093814407, -0.28092663234946375, -0.2692144940588367, -0.045045450997974974, -0.0788918356419798, -0.08647102870044486, 0.06446663198304575, 0.14923347970466935, 0.0021449413347753615, 0.04552410207645855, 0.09659710813600277, 0.20615688530962828, 0.12459163807568505, 0.14769625504298328, 0.02600764902572288, 0.03072456450045444, 0.0025296840461229817, 0.006609607225192942, -0.004230842894620166, 0.023161467435396127, -0.005409354865770459, 0.10583020889413598, 0.2532377660621858, 0.09060361505933956, 0.02943101120860806, 0.04485643023937369, 0.09618278588352097, 0.13975854655290093, -0.013649809638856807, -0.07052319928842733, -0.11614331106344963, 0.035223855733887116, 0.023459540835042682, -0.13821362135659962, 0.039969579561479215, -0.008831183845712604, 0.13340179959208087, 0.08823094118175684, -0.06034943191458771, 0.07073800954646081, 0.0799348353160999, 0.06522928220530969, -0.0009555955300647742, -0.00436435598017507, 0.012069294647275767, 0.015462756419919675, -0.0009241654721425291, 0.03404546824446397, 0.027080825807820275, 0.04092452541095166, 0.0420829635225737, 0.14731826818026328, 0.17073881355878115, 0.038333477237592256, 0.06334276831668302, -0.05474151226040113, -0.10604308202213485, -0.06206282875660981, -0.054320897114022826, 0.017224448640376547, -0.08732552718710396, -0.03488130728872156, 0.058226743872269594, -0.03272837816820759, 0.08103702379286241, -0.027418370268847938, -0.08166516598378395, 0.13793503762975448, 0.03905140333338863, -0.10839214994158455, 0.012934839535201954, 0.03351988453449549, -0.002265011288866761, 0.004543285572701819, -0.008377733681841634, 0.012219636905755773, 0.005772468178015192, -0.06675967831672759, -0.11764304684605426, 0.1361336195259058, 0.13053563931602405, -0.06318770017948178, 0.00664535714001507, 0.020445595426530138, -0.16442666577809661, -0.10446098510379885, -0.08307950202851107, -0.015164826804974775, -0.029280337208163188, 0.0043035579792778614, -0.13002764852435866, 0.04180535126711407, -0.06486442769563243, -0.1332236111151262, -0.010240473758178105, -0.05240309807296915, -0.010542677477201858, -0.033168254483351124, 0.07200682697042608, 0.030780541790582025, 0.013516793725574088, -0.007124168749194661, 0.006544385495313552, 0.011531599401033755, -0.04112911140082169, -0.05230981951859661, -0.05291394036594615, 0.004302737418276073, -0.05983128967162455, -0.0916648147704611, 0.0038453459361141498, -0.06317000138912378, -0.08497929451796125, -0.12302485024542692, -0.01358163304378605, 0.010865838044875953, -0.11619258490890061, -0.06308052462976231, -0.05542534343871163, 0.11700955996402441, -0.03172722076482269, -0.029288055830346625, 0.022484823865636917, -0.02065758869767635, 0.07410402218525226, 0.07363033129453608, 0.05437906309596929, 0.011043741017703453, 0.005374384016791941, -0.00607508791920424, -0.0005455378763507323, 0.00037796528801620324, -0.033264484541551974, -0.03930340049300986, -0.035328950269009986, -0.08536681795329719, -0.11113054995423474, -0.06449350585730061, -0.03725394253967083, -0.07024030245186898, -0.1073826811934128, -0.07571038095554128, 0.04858839814629555, 0.12538846318025368, -0.16967967885372995, -0.06770414677610859, 0.062048302171360925, -0.01602541325264394, -0.036680796319445826, 0.036307562205907265, 0.007208576365585534, -0.0059314509552593235, 0.03471318808855731, 0.06856459131705085, -0.02470615888189438, 0.010019155087372417, -0.0010221286847735117, 0.0021582497392455395, -0.003429505308479507, -0.007114207127344185, -0.02009143795311468, -0.04338999826373406, -0.026006852234774305, 0.0008996729640003413, -0.08719313578168811, -0.054441449940531544, -0.03328588525845378, -0.1195100836220408, -0.16032603825628314, -0.24115450854879011, 0.08135957431351927, 0.0972243290578466, -0.0013860759092418845, -0.186755339775296, 0.03307244056103264, 0.011016622414473223, -0.0657409668467741, 0.03405950040626112, 0.03723216020795092, -0.02900999275581096, -0.003452300932138996, -0.002496028755616661, -0.06003699673864825, -0.01731584097353111, 0.0021346779238804086, 0.02364895872587415, -0.002498940514585961, -0.003321556774629769, -0.035599994933237004, -0.0646480141731146, -0.06247865326175682, -0.015208956353633268, 0.01862335080968141, -0.09901184045660259, -0.09376122691097395, -0.13566907981150902, -0.11498836486298296, -0.05211450624143324, -0.02978927630332848, -0.012145324759788337, 0.0721238102104028, -0.0608017610030534, 0.14322164235109355, 0.07745320030508193, -0.10637788707144666, -0.05978581860556118, -0.047312800919796644, -0.10090619282887583, -0.05382168499608763, 0.01863669762351948, -0.020820555330344676, -0.0006823282393204629, -0.0054038479877414215, -0.0016254700201331176, 0.0043486663156239065, -0.01567880225983313, -0.026520335238548697, -0.035738344813657945, 0.00815616280262432, -0.006170068486378862, -0.12124798997207525, -0.10300141123756588, -0.1066977215163079, -0.04675939346590131, 0.05752534869819954, -0.029617707348370322, 0.061561417091632126, 0.02188826739877043, 0.1396729369440499, 0.052011933760513766, 0.023647345160027086, -0.06057686289683805, -0.09308227284544833, 0.05027974406703158, 0.010175380598874302, -0.012657222437514775, -0.008854300721604114, 0.009809472852064504, 0.005431404259508653, 0.009264627109707746, 0.00039948599221329177, 0.0039127549352321956, -0.004452448148414345, -0.008941334261397735, -0.013802409023711168, -0.045603689109948504, -0.011065159824747295, -0.01319025901803837, -0.05330340437292197, -0.08347389607626704, -0.12396620507823367, -0.0726795340305438, -0.0165133396985836, -0.04984974499659652, 0.025062249017718103, -0.13555936302983757, 0.03001951135892164, -0.10527982230992797, -0.14891813852115726, -0.09372851390236982, 0.026092911849021863, 0.03102946846456333, 0.01857553464592006, 0.017799120007814632, -0.08155304608939996, -0.05075530439083647, -0.02358483057673689, 0.0029725940750687883, -0.014052178261571112, -0.001309718728226333, -0.004562482835705092, -0.004386271598818417, 0.0015840199976188693, -0.0012006430361865311, 0.009210879750893748, 0.0547760949558644, 0.02493880777849367, -0.019078740084695935, -0.06562653938455858, -0.03614150624279616, -0.11651070041053259, -0.1030243311043088, 0.08407006771010633, 0.055503187961916056, -0.0706080759002452, -0.06673513299784864, 0.034900358007886254, -0.10600010529231614, -0.05098920452979745, -0.027790094159627857, 0.007275775698267782, -0.02059551370575944, -0.07361526027486334, -0.056472197025678524, -0.011204292453601807, 0.0035527847412405848, -0.00034535022196164727, 0.00726134867825759, -0.016991166339722395, -0.0023973620836660247, 0.009373864993115332, 0.023554042306851295, 0.048424455046366784, 0.0549583353491658, 0.036044121359352116, -0.046768787569922386, -0.09682576269731925, -0.03854336844202005, -0.058000349905912546, -0.05799368096982681, 0.14955520163791539, 0.0642254728436554, -0.010891610181383028, 0.161754318995925, 0.2554156138834886, 0.05311004694142057, 0.0108820456848155, -0.120032174196215, -0.0016592117325807977, 0.029849064921026184, -0.0328438997941909, -0.034596817424504094, 0.006393583760511029, 0.01692973761447379, -0.0025238689329110304, 0.0030251942248079233, 0.002655685270898584, -0.007315952632877328, 0.014087571238649784, -0.029877647848265347, -0.03361166554728027, -0.024891790959700313, -0.027023490997976584, -0.02943104536207179, -0.021302458562195002, -0.01455865706607675, 0.06979637466125688, 0.11731036212388744, 0.032328360868263704, -0.0040815529480007166, 0.05186263557350294, 0.04576951587741875, 0.019261121956195365, 0.07901545100116297, -0.07677810286791988, -0.0625405329245937, -0.022272226473202716, -0.02791855096145132, 0.003154470762972785, 0.000763137841379257, 0.00019994967461225461, 0.013363701943838941, -0.002292590287655567, -0.0035253503682648834, -0.016042147536292985, 0.011878685437497325, 0.005821424920816568, -0.010859605499956931, -0.0034380559944010153, -0.04277580321510313, -0.05944309900798853, -0.023881286432826433, 0.0006306260046459104, -0.1240811478620886, -0.12912638080686267, -0.13469425771641955, -0.22181450025039734, -0.0701507480942413, -0.107084491075794, -0.09860062380244075, -0.04199029670035445, -0.08488863936721851, -0.04149591182734141, -0.10025041307469287, -0.10668276281970618, -0.056812445934946804, -0.0083308506486609, 0.004806622129689648, -0.006149136899449809, 0.005161122435483116, 0.00792322288052063, 0.0015370521695489562, 0.004864382225625273, 0.005512166128592531, 0.008612665715036018, 0.008839502386487588, 0.013275088247009154, 0.0012811647698212295, -0.02779423709624624, -0.03121534716829536, 0.012310660629480693, 0.04512191525961463, 0.010626354516569512, -0.008901204328859475, -0.004671073142229534, -0.008316642929958852, -0.022431724066448663, -0.00034356820253330706, -0.0013367624192813187, 0.007181503741260418, 0.01877401257528138, 0.010514977563780043, 0.016128796799463198, -0.00548880140255683, -0.0023128155224358777, -0.00725820500298242, 0.002101868410036194, -0.0088485434752194, -0.0023625555326367395], [-0.00037615994632792866, 0.012767191489740726, 0.00039177309562547736, 0.006741029326785941, 0.0026777012067396686, -0.006712309046298455, -0.006632882866780524, -0.015843344372860897, -0.007168880934732867, -0.016250094301745382, -0.005567621514643417, 0.0022967153766437353, -0.004461120040120394, -0.0076312911791821545, -0.0013388912906496615, 0.005834095981512995, -0.013107004664961992, -0.0032238075569124545, 0.0031388549776876894, 0.002779745280563142, 0.01484445107084106, 0.002863265680028814, 0.012743124343183265, 0.002622432869115122, -0.002677693195859777, 0.023151803548941086, -0.0058437154286798635, 0.004978342742080494, -0.00040075366780923885, 0.0021788324306974576, 0.011386853901519414, 0.0015920106514471038, -0.004934124745096896, -0.0008844643067899977, -0.0008807824240294078, 0.004820052839408612, 0.008155218534436697, 0.0022765805077186595, 0.0029878835216717576, -0.007477366967079983, -0.0010916444056242509, -0.013544032700401817, -0.0029385467730909933, -0.0008040176285142174, 0.0035190843572010977, -0.0036371175748580093, -0.0018632411690256707, 0.004991728276461638, -0.0077200790101116185, -0.007716995981798466, -0.002407069349519136, -0.008645770171533836, -0.002817235084935806, 0.010318418200519767, 0.00046784937295966787, 0.0020376296490332933, -0.010883278707114573, -0.0052543572896868685, 0.0035207652290958217, 0.011570190634652226, 0.003090875245702126, 0.019198917960667868, -0.0020299220166961752, -0.0028673616031927337, -0.01296890077314943, -0.0013889052040000917, 0.005982704109384945, 0.01766488958041807, 0.002174726743628351, -0.003037533274913715, -0.0038949079069203816, -0.00699883616013468, -0.0031772074449241453, 0.007041372370627094, -0.01199059369941957, -0.007717493531208477, -0.006988272726668255, -0.002129428600873547, 0.010041282597596212, -0.003501384725663244, -0.0011941371122572888, -0.022324405146631594, -0.000550204765260456, -0.012399033880201894, 0.009798522464403134, -0.007795162508515727, -0.007974613790979688, -0.004547716131655375, -0.0044343641414569595, -0.0030239455527119874, -0.004780526200079395, -0.009586829970645602, -0.01224523914657415, -0.005025540697077052, 0.001957322456598519, 0.005768805740814981, 0.0009102032195119208, 0.0011549331138140829, 0.0169164429690165, -0.0038927078405497427, 0.004161323295534033, 0.004390091595923523, -0.005101580446344326, -0.004786907890985545, -0.0014298189682547628, -0.0074374817713598156, 0.005741214418252596, -0.009387928409213315, 0.01093573043839396, -0.005409009497137736, -0.0036096491709529718, -3.492758764814995e-05, 0.001003113894157695, -0.005939581633120097, 0.004557153161717485, 0.004492974813235116, -0.008402458152067013, -0.014464121613150561, 0.014744016788453924, -0.013655096860194879, -0.0015924842864257645, -0.00355375050237344, -0.0005310030951164893, 0.0006445968148191346, 0.003398536806407616, -0.0016230146121257868, -0.019652339197712296, -0.011742907655717973, -0.0049998818847284835, -0.004888423349005557, -0.01106060756221825, -0.009280215270011287, -0.005613637238876995, 0.003927173341244136, -0.0036501788466534696, -0.0005472194022512601, -0.011697974161468729, 0.007109635821768446, -0.004178194038024876, 0.010970997409177676, 0.010982775558996391, 0.012114518630740605, 0.00797046723519423, -0.00811211898604307, -0.007031821652145971, 0.0017876549714278616, 0.009597043598183929, -0.002458161946884881, 0.008613161751745934, -0.001104376464570178, -0.0023042418738825022, -0.0016795988245323168, 0.009955259011961174, -0.016757672616463805, -0.0024690499435742284, -0.009169406769393092, -0.01003164200095136, 0.0021468819372988143, -0.006155338139611324, -0.0008138589602597556, 0.003128331498567257, 0.00940602333500044, -0.005759377423910663, 0.003233676274090903, -0.00211787252866471, -0.005146978560069111, 0.006696224777004596, 0.006036512464703873, -0.005022990976195243, 0.013378116376860774, -0.0023134560974662215, 0.0053886742856846795, -0.01458797810315215, -0.011805232897472517, -0.000515145788785666, -0.003845865752157339, -0.003072883212445579, 6.817584430872991e-05, 0.00307282455894711, 0.007837298101313327, 0.0028159310596452777, -0.011365946471972073, 0.00016743186789786504, 0.00410249998881334, -0.0004517681269095583, -0.008868784271977194, 0.0055383351830512705, 0.0007855382744219617, 0.0003430693825032431, 0.003692785559365032, 0.011398834257547286, 0.0006747610660249577, -0.011890084707318038, -0.008627974205326487, 0.01993842759967048, 0.01200292789105157, -0.0030495457024673138, 0.006333930480135709, -0.0027387379962838486, 0.017078359343381515, -0.01476652054412314, 0.016906187366640343, -0.011317660633933297, 0.004176704665303118, -0.0023884953064597482, 0.0011252436935099861, -0.003685302260653199, -0.018065758695150393, 0.0030695127825491526, 0.004502414002957384, 0.004259119383642847, 0.003065717685242216, 0.0015076592774037824, -0.0013040191652375327, -0.00441235241460535, 0.018619381483732333, -0.007449275705148507, -0.011194430659433784, 0.009328682260290457, -0.01257523852653519, 0.006349980950188964, 0.005479678677607807, 0.015131170599938197, -0.001732758321955733, 0.0011793630129445151, 0.017298039314813503, 0.002455852487083229, 0.003134920359530633, 0.005563433970951179, 0.004645917024288651, -0.004195313907113365, -0.009475135398697272, -0.010124024117147426, 0.0037875795007864914, -0.0036498556709384806, 0.004021160212476942, -0.0013189127992736202, 0.008823743358924677, -0.009888013028823143, 0.003691334270732457, 0.0029520350923240204, 0.020896644033264838, 0.010269307533746691, -0.007676132182113457, 0.005896626703415156, 0.011637503922635318, 0.012575175560239668, 0.022331544048569612, 0.004476291091320834, -0.003995359321006228, -0.005926061666131899, 0.005837113879521059, -0.011177075201382381, -0.010204240273828784, 0.015826769697950244, 0.00031589591126477307, 0.0031600233116760874, -0.007825081922398294, 0.00041974128016862995, -0.012610196892068173, 0.009435735207682618, -0.010185329162218256, 0.005923037495928075, 0.009552272855030278, 0.003338169486117658, -0.008616966399506744, -0.007626032230967302, 0.0005617259944761, -0.007477355418183594, 0.00939050631308147, -0.012920237428310005, -0.003507972388676351, 0.00171899208929358, -0.0038844512750650685, -0.012522325449196486, 0.01380904745514615, 0.0011676293573875723, -0.007722801970295681, 0.014814679833480934, 0.011072631902394783, -0.002152216947414107, 0.00733660498678703, -0.01057288421413129, 0.0022983866379199924, 0.0001689667786310871, -0.003246368204187776, 0.01821569531268761, 0.0004926879042444808, 0.005171235758199687, 0.0043501828423740535, 0.0005439341931268523, -0.009086834788337888, -0.012660708364360975, 0.013919197090815162, 0.0035778702879583693, -0.0009014283867196086, 0.0026217185515179093, 0.0038142653865066143, 0.010909721077926978, -0.00018333367603237934, -0.012542099035522804, -0.0008464611504575722, 0.003043775128377309, -0.0062144064572095935, -0.003908018321765387, -0.00754614303123987, -0.0008346494075269963, -0.007834826810466097, 8.131735672164485e-05, 0.005405451340690486, -0.004920090577916407, 0.010590998709246341, -0.005339001869978025, -0.008778694057740014, 0.007413523554659673, -0.0035279215442647342, -0.006669890639283771, -0.011303317072840113, 0.002722385569987771, -0.003836025970755507, -0.006609784991609498, 0.011454650696706929, 0.0065466177690961845, -0.0032135429568131498, -0.0025701486878083025, -0.015219204627073378, 0.0022995233208097645, -0.006908408677684804, 0.0009196841923539528, 0.006664925614465932, -0.00452286607507025, 0.000500827091391039, 0.0006258809173429092, 0.009615834403542297, 0.0028319511846813055, 0.0006103894926591052, 0.003706732905998138, 0.008347982093562677, -0.005877168045527592, -0.004493704252640154, -0.011578803374274735, 0.011036810729932078, 0.003849568234938232, -0.0017478545246966558, -0.001528440167302981, -0.005355492969707257, -0.011629146404722849, 0.0008959093541770607, 0.0090796540443833, -0.004507757274529855, 0.020014749483116073, 0.001945549606331121, 0.001122406561609116, -0.007344305932542433, -0.013720223603366877, 0.0016699838135283624, -0.004326165455003587, 0.012380579968048082, -0.007116095227308452, -0.0014831381671877924, -0.0016138449367172892, -0.0037466109327049016, 0.005219429849254159, -0.00709520285160491, -0.0015315056977112473, -0.005363173148194404, -0.0007659211565563202, -0.012141646775702036, -0.006229064798087362, -0.008608627164635771, -0.00901307104444153, 0.01237103284711005, -0.016914180573112107, 0.0038656106840911334, -0.0012318734706012356, 0.0018884918792547042, -0.006859060713581224, -0.014900782650702825, -0.0128383007589395, -0.010331726486161824, -0.006348704430000809, -0.0003173833893669851, 0.004048401172878894, -0.011917782842819651, 0.005560539131959542, -0.002647056073858659, 0.003977851504768287, 0.002335801812437772, -0.007493084486761384, 0.0024910591147588074, -0.007180107268832159, 0.009577977892083608, -0.007362793029002271, -0.01353611048485241, -0.0071626303908604505, -0.0021515536518585086, -0.0052426213162146094, -0.0004741593855904553, -0.012420164303387734, -0.0024635180304283166, -0.007204242909697521, -0.004391222011976244, 0.007523666504617049, 0.0055344251090798675, -0.004584654452422145, 0.010536131797543716, -0.015194817413150813, -0.004596035454855893, -0.0068201931376210695, -0.0022561013091838573, 0.015997343758177095, -0.008919144363579486, 0.018200495339958288, -0.01782375703547375, -0.00023628994863001285, 0.009176688510474219, 0.004436552891315898, 0.00670050956636986, -0.004268933225475305, -0.0013194318722452969, -0.010710179184039922, -0.002493640043271402, 0.0012097808864364509, -0.01463203309499872, -0.006775797879854659, -0.010206623872615271, 0.005621655359219675, -0.005488299376979191, -0.0037445909292148096, -0.011836524449163884, 0.003939134479978368, -0.00561399588057416, -0.002600741158234538, 0.0022739998421923294, 0.0035844388835993223, -0.001694318040461234, -0.01777760397904291, 0.0024156825066488606, 0.0007890692548360869, -0.00029199735588706965, 0.0055730259049528545, 0.00278155978804139, -0.002282881922374819, -0.0046284557926204225, -0.0030737538830839777, -0.0075896282870078794, -0.0010772289589109614, -0.011907622188408865, 0.004638444769043513, -0.00227474731135603, 0.009198903145629756, -0.00043674996949443515, -0.005653543162644455, 0.010612626319355443, 0.004224487761772713, 0.0019071238426523185, 0.0032723248705475365, 0.0005843939972069774, -0.00017598138361234794, -0.01389599076712015, 0.002763812345519854, 0.009416812443959355, -0.007161918571978063, -0.002894911601841925, 0.005753121884352329, 0.00252191307737035, -0.017206240390452186, 0.002389695506459835, -0.008846428516528065, -0.0009748953618030399, 0.0033933256410680905, 0.0063693208851333845, 0.0007219328625655817, 0.01027727122716682, -0.0018907897559143434, 0.0015873695863971755, 0.00046161181285955024, -0.007984494498739041, -0.006599434815363602, 0.0018498411372133918, -0.007012746832854465, -0.003053072110416164, 0.006633348500731058, 0.01353652765449029, 0.003135156960044686, 0.002328149786164617, -0.00588130026066658, -0.005503773360151528, 0.022965994875281077, 0.005331979676475672, 0.0009750413977440051, -0.01130475458504792, 0.010196909814035352, 0.0058598713655813595, -0.009844137936579808, -0.0010495562849547886, 0.0021463728475152417, 0.007545139149068106, 0.009915932636165525, -0.003852042889613709, 0.0011120372811964279, -0.005601518904237647, 0.0072877166629329035, -0.011648391747255397, -0.006753935048740572, 0.011872104444013671, -0.0008158913761515367, -0.005037439004943555, -0.006902941143582375, 0.007580103223761741, 0.00907364862527395, 0.0012728578387995728, -0.006972896735822956, 0.01318506935010625, -0.004254293033920753, -0.02411513562941301, 0.012809047411818313, -0.007408594151005007, -0.0049295103853211324, 0.001339967875073223, -0.0007769348728055538, -0.005276689680614794, -0.007445460465454695, 0.009959960209916234, 0.012643715938813733, 0.011137228287181744, 0.0019917964692788667, 0.0010439988782397261, -0.008528027802593034, 0.009959494952706496, 0.008500389753341055, 0.005897703257458017, 0.006944093518888256, -0.009750236096536588, -0.00012391904866888, 0.010032520535455499, -0.006493110433351014, -0.007710084564885047, 0.006721728763696367, -0.00013225816390759844, 0.00281742905360351, 0.008239351178203557, -0.005761388748048987, 0.011647677216174783, -0.01258034554480999, 0.0023404939830254812, 0.005943776971916436, 0.007374161119384799, 0.008551932567425381, 0.010794537031639937, 0.003994704457615017, -0.0018099746906049424, 0.0010985946670176454, 0.001375760000739449, -0.013360260277082677, -0.006868698332086594, 0.005391592724212288, -0.010912263212311544, 0.00401756241121058, -0.008892711796174395, -0.008527350092561847, 0.0008850751538203889, 0.003459912782150181, 0.0029452452520160833, 0.005269766827126031, 0.00790326408444199, 0.008783436008038544, 0.0125748654337987, 0.001212172076871626, 0.007103349357876214, 0.01791778288992253, -2.467965192589416e-05, 0.00028067285730300743, 0.007004263932265849, 0.010570070885897127, 0.007602740352181091, 0.005602579611650457, -0.005310851980124664, -0.005605309428566835, 0.00866073966387856, -0.009674525751706407, 0.009353776360584827, 0.00421394154170553, 0.007212907900229839, -0.010613195597844167, 0.00496870043907078, 0.008684884157980315, -0.006593529965690777, 0.0008829801288757009, 0.00835878382521194, 0.008509701929492153, -0.004463382251160537, 0.010949552334590844, 0.005085673872543686, 0.012800527110518503, -0.0157160083026896, 0.014873006383975497, -0.003665468379666313, 0.01991767860255044, -0.008955126989870105, -0.0030472341360892976, -0.004464711979138348, -0.005905113143991309, 0.0026210660371928478, 0.002488044072300484, -0.003298492668019994, -0.0008995036531130878, -0.002134223257301531, 0.0017191743486214318, -0.003328879484298717, 0.008344447831770048, -0.008735381861276497, -0.001781982621937805, 0.006875109784849869, -0.008940073278952389, -0.0012115526992395086, -0.007478519200602087, 0.002567940770914478, 0.01823032061012177, -0.0008245133218026538, -0.014755725238463021, 0.004581428380657092, -0.0003646541134980876, -0.00022166531003656303, -0.004648044086649216, -0.009012020281116714, 0.001299390117538182, -0.009302625326759004, 0.013459171526726259, 0.00866644644979997, -0.008716214727679977, -0.004940625548705026, -0.009809174010321026, 0.0009839011218636953, 0.004596323808662751, 0.00909455609533433, 0.0063429470503288685, -0.007707115194794699, -0.0016051314393173035, 0.0028880765876982215, 0.018317521936897473, 0.012362232523164356, 0.008130508362053932, 0.015431465668270625, -0.006790327707936483, 0.006222645581881146, 0.002295268327772238, 0.0018733583902722293, 0.013901483971493173, 0.0021741844672514307, 0.0012809942610747154, -0.0004251412150655299, 0.0024230635574118264, -0.008123512389865096, 0.002877438315555303, -0.0022504177141477026, -0.001865210287890788, -0.0010265525141665446, -0.008271407057748674, 0.014985356531111781, -0.014288087382554692, -0.0022937780010643454, -0.010320415019665737, -0.01289027747579312, -0.0024596524175902073, -0.001911737366760535, 0.002325930894513501, -0.011205598330773102, 0.0037590395389648663, 0.0024230356480662426, 0.01704853550322364, 0.00716765255514516, -0.0021447981581136054, -0.0017540778774084182, 0.001778305890215703, 0.005424333203739936, 0.0002428608022922565, -0.002681712717067821, 0.001815248423397397, -0.005014907360171647, -0.0015730934266485824, -0.004011765930049737, -0.0037015456961714014, -0.001998053645830316, 0.0035417352579228934, 0.006607462692119497, 0.021305472646183876, -0.006279246524907763, -0.00752940433463588, 0.006473854188213457, 0.021621292998267035, -0.005045358583166239, -0.009219502044652416, 0.005154170217792567, -0.0018676077509042221, 0.006375839234959415, 0.006481697823562883, -0.007887665118712688, -0.00028877996543325864, 0.0023653212619345557, 0.01263572619165084, -0.00017664416448699604, 0.009416131010011297, -0.0038860664635260137, 0.01022031951386617, 0.0052376731397167885, 0.005919469328142556, -0.01187073893033376, 0.00014970114284904633, -0.0022780533613935244, 0.009051397263307403, 0.00555725199046813, -0.008775452241491295, 0.0022430089886388825, -0.013378661700276441, -0.0061351008376780425, 0.007669275377557112, -0.009298484325144364, 0.005329259165106676, 0.011037216566695473, 0.012803394902651734, 0.0037872985041228686, -0.002004096653439525, 0.00908866484560197, -0.002383851551120901, -0.013336173885664498, -0.0065193299225665136, -0.009422331428008548, 0.016799701199472786, 0.0001260987892051672, -0.006445491611250273, -0.009137460185215268, -0.015241751667579316, -0.004036333739335386, -0.0030701628772776108, 0.0025710269145413417, 0.0164946106945343, 0.01641993565408082, 0.011675933603883791, -0.0019161734540230839, 0.009888296595031274, -0.0030261803873899012, 0.008192787967818962, -0.009045666363036404, -0.006833537291355231, -0.005097221185258829, -0.001860333829802537, -0.0007796840527745373, 0.0107351260867956, -0.002826260208631382, 0.014061477284991434, 0.007010476354454409, 0.017486601179881756, -0.0038565383660293558, -0.006611177714194989, 0.004377367861133377, -0.003524170950471775, -0.001527537756252834, -0.002566332933802805, -0.002072290616939154, -0.004453874301441116, 2.960622624251707e-05, -0.0010391983717409937, 0.0018965974952963689, 0.013578603361464764, -0.001510070521286756, -0.005392163942706421, -0.007434166254685515, -0.011999917423375204, -0.0021559057728378077, -0.003537858299820741, -0.00332437965078706, -0.008942533085213157, -0.0023257830376281446, -0.0013363244761097398, -0.003735735040498043, -0.008881204181053875, 0.010472630705708842, 0.003189306683756948, 0.011910440610984903, 0.012548762009933429, 0.0030532143654197984, 0.008561604659727324, -0.004896831523258599], [0.0027040417804800355, -0.004894049220031755, 0.004349817381026149, 0.005834009784226234, -0.0038933323745046064, -0.00405235856725471, -0.015429225978012657, -0.004998838712913491, 0.018092623227500465, 0.0017501327203225457, -0.00032985903681290933, 0.006426643156284532, 0.00031181146040450434, 0.011075795701868434, 0.003166657542073759, -0.0128691669046718, -0.00249968012100182, -0.002093288978186874, 0.0035996075442566527, -0.00413219741857089, -0.003534190672080855, -0.003194897650663838, -0.0014866573858470457, -0.010170615960168921, 0.014891557032660404, 0.008502192204216757, -0.0038456350421626935, -0.009728174001215886, -0.003366135981288435, 0.0018900190671366935, 0.011164430156664846, 0.0007228568281243719, 0.003781942938796081, -0.0004378884553411597, -0.0038590033181992024, 0.0004268199477083984, -0.012582073963485043, 0.001555020465940533, -0.00578717028851012, 0.006175326181870887, -0.0030046475446179302, -0.001096461253367703, -0.00013569005053763527, 0.005024535994882378, -0.0001612918305802157, 0.0029831283688044256, 0.02002855656985727, 0.015538370387401598, -0.002763144868186835, 0.002405681294034694, -0.006149588846860643, -0.00800563291226726, 0.002443082654465903, -0.008460191778500274, 0.006299331583015034, -0.004252378122111657, 0.008905533498062251, -0.005191335371612549, 0.002711074937870044, -0.005692422827920558, -0.00199815407770141, 0.00379743578635758, -0.010360066251957062, 0.0006695172390958726, 0.0010432707052671743, -0.010898520750898508, 0.007456489714489238, -0.005040268091594525, 0.004876720151855796, 0.0027234892232039713, 0.018998690291646903, 7.631061600537696e-05, -0.018133007882097915, -0.013435878427691814, -0.0023268641111999304, 0.006787203685142796, -0.008179252521344483, 0.011982084635453796, 0.008849380789520253, 0.005692015723083469, 0.00012719746457579497, -0.00330477459504961, -8.206068997908877e-05, -0.0017207714543536743, -0.010335915379700888, 0.0007185879021866171, 0.007493817017507087, -0.017380252179335275, 0.00018053750983731298, -0.0069333004630337145, -0.0031608123356044408, -0.003779109895563279, -0.042403141431799914, -0.04793127209733923, -0.03271615961903085, -0.027143325976313595, -0.02491297187769013, 0.006401300247988646, -0.017576566853025638, -0.05826834228471371, -0.030433010184357668, -0.017586404222055988, -0.053730202925288455, -0.04865496543562593, -0.04531145151099549, -0.03882646581616067, -0.025127040938283444, -0.012361330370092015, 0.011675102919182433, 0.0043018700634450645, 0.009325590977941133, -0.00022758009821777868, -0.004675706516038305, 0.00490215617108432, 0.006491792177087521, 0.0030769397842680558, -0.008213070979620424, -0.015392339010092041, 0.0038187165609686194, -0.014111550811644072, -0.025779458034637354, -0.01404546935220414, 0.005893038979859325, -0.002430726933864438, -0.04519685619806189, 0.00564615650470091, -0.03650584229545191, -0.0737561617424158, -0.06992473334397967, -0.022867880594828725, -0.02996800350193462, -0.029950113012785568, -0.03715670856404227, -0.07086668543004736, -0.02037269062661371, -0.00539776415638572, -0.025653837088427275, 0.004170290450185861, -0.0068555129174374995, -0.007191086250124164, 0.00015128036335917768, 0.009520689753039744, -0.0064016169854292, 0.0009624009948269055, 0.010205036158335566, -0.010328825747292636, -0.029762523130716156, -0.04442370484481706, -0.017805681015917636, 0.01816099885990552, 0.0323661958653115, 0.03258167712128222, 0.07767648931809149, 0.06558526992606288, 0.02038042418901868, -0.06733161738438542, -0.09125665818921443, -0.08136892269062548, -0.1157099385535136, -0.04311981829639852, 0.020437154189908262, 0.01156548561065007, -0.013365237004776223, 0.006118337476666493, -0.012696762535361866, -0.003863253136033155, -0.0001972411956609695, -0.012657822745490701, -0.0016270608431888948, -0.0014646179602305109, -0.003278995188229553, 0.008710502852925581, -0.012267721047077058, -0.07270603830880204, -0.05432693810514413, -0.08234233788758079, -0.09068184437059891, 0.021639128751620714, 0.013266902468396123, 0.08134527510546358, 0.012018579274188855, 0.02065472234449672, 0.06793626511041481, -0.06850001848752957, -0.11755898561778373, -0.0790948222094447, -0.02795063286899083, -0.015244041398822848, 0.05388827229612469, 0.0442806838958905, -0.0015761873940341221, -0.0058254552008361925, -0.004493879148351421, -0.041813859104855806, -0.018512842769505378, -0.017794165396616882, 0.006980744711258503, -0.0040329180962405025, -0.006864009214673574, -0.014321161791781488, -0.044079047223411584, -0.05774342577475938, -0.04876180049627913, -0.11248963456268936, -0.14531919307372865, -0.021351161135313816, 0.05561164743716838, 0.11471709590323939, 0.14857650132167818, 0.15080522541575309, 0.0384444494555566, -0.10598118109664717, -0.07293874038928595, -0.03527264658508229, -0.0628368729158488, 0.09563538681848395, 0.03343324196027236, -0.02249490016610847, -0.028372005187906384, 0.034317929487977135, 0.009527817501087818, -0.025988469680686157, -0.028321512505190376, 0.019830451943835953, -0.004007052487629306, 0.0004193182862248001, 0.004081517093117335, -0.010674496844156414, -0.017012671576912716, -0.01780490128677349, -0.022324134588998745, -0.056321408266554476, -0.04842433376429838, -0.0397152451879582, 0.006142703342044982, 0.07940528782463613, 0.10701070864281594, 0.01663762811375576, -0.01541749562724077, -0.10605162903480506, -0.06269959801789804, -0.009371538439200655, 0.11233201893460021, 0.13998376158983025, 0.07199867302503943, 0.057317179336634355, 0.053967376768984034, 0.01375559805368763, -0.021522960544108755, -0.03338362717239848, -0.01450087929025075, -0.012858829800042647, 0.006098186675843726, 0.01230082272728854, -0.0075556546073187545, 0.0051844937539676506, -0.03034578422866433, -0.020329408061292097, 0.0019319366677886308, 0.004824840438268006, -0.010518187252686209, -0.020678367038081374, 0.07096053872914686, 0.07595949858752271, 0.03231407788405596, 0.1073417827853694, 0.01031997800020713, -0.17479533570591985, -0.12998478457430565, -0.030932369394833552, 0.12993768561279664, 0.16157459260605916, 0.11417814146652204, 0.08409120867218406, 0.06953693270206067, 0.05166670925095427, -0.024262311660711553, -0.03065805065174293, -0.018913055823169173, -0.012905297463814653, -0.01732257428233817, -0.011351081065018974, 0.013990114455751263, -0.022326593634109416, -0.03577708186075302, 0.03377958044215675, 0.03878704789702997, 0.020122160536789724, 0.01991498241587103, -0.05021556765924313, -0.04234721313721674, -0.005172211690647753, 0.0005852089055992892, -0.004716092526909917, -0.10073397482617477, -0.17918508418443113, -0.09503796859916445, 0.01690892874664067, 0.021709706875562833, 0.1340756184581967, 0.04330086331905515, 0.04002959551476939, 0.04012402393327323, 0.01963008674099139, -0.0194977661618863, 0.020658082691356067, -0.0018242281822251649, 0.011468274534103554, -0.008560137787561818, -0.0007901548662578267, 0.004469875109849112, 0.01043289229331443, -0.003635404976444631, 0.043102549722249583, 0.08882448377547253, 0.031701775569887736, 0.01594374602411086, -0.08627836977644794, 0.007008327401463405, -0.02427958915188983, 0.06033020191223473, -0.04018719208328161, -0.14285055427441098, -0.11899296520888399, 0.01152371808617003, 0.04601712338291004, -0.028193078395585217, 0.10131011744017598, 0.082436028300082, 0.06283810702899126, 0.08627181569209941, 0.048876904883719936, -0.023787724187375993, -0.017761944373915817, 0.0022148970665441686, 0.006335713138947793, 0.00559973197877974, 0.0022716037175765907, 0.005904198084346705, 0.022055167509044724, 0.09468765099714317, 0.08905189636012498, 0.0710989589873794, 0.022863079992490206, 0.03009325898392945, 0.017798442752314094, 0.008569925048657404, -0.09103355122114432, -0.04791338319067473, -0.03791249048234022, -0.03630321618015769, -0.06521276816153335, -0.04982631668685743, -0.053862987535016435, 0.0011370399116947011, 0.0445152281548452, 0.08587482226811928, 0.06050562857165854, 0.061509659627048456, 0.06622821848580303, 0.009885769460678177, 0.021986427246161882, -0.02146362138601982, 0.0011037428546896604, 0.008324715434244206, -0.008419158145049366, 0.0001142991022702554, 0.02135803371182549, 0.0959255902758924, 0.07864626461059121, 0.0555053107170578, 0.06747027696686932, 0.007524393224311615, 0.0010972735183674574, 0.002404035026363244, -0.1601390954649908, -0.0715883488839943, 0.03466322715786952, 0.03983175830183628, -0.05152181319488658, -0.18726908207971263, -0.17762920957783482, -0.11465353830577499, -0.034230965024115, -0.06069226821310126, 0.039766631763066516, 0.09736413531697806, 0.013082388627783445, 0.0041782048952254715, 0.00498778797307829, -0.0010228800752112217, -0.00014313538501417684, -0.00611858744578163, -0.002562509704243271, -0.007579580386326131, 0.009352427139504686, 0.08436255743527045, 0.06631777216741395, 0.08704598389448343, 0.05890934724262338, -0.03254813246154764, -0.06671970478675769, -0.12644769025689692, -0.14002724467327107, 0.0036087052892853073, 0.054419392076918906, 0.07456644746579129, -0.004253249655456218, -0.18508503766959625, -0.2610645090619912, -0.10096995802667771, -0.010142233945841688, -0.025541332291043668, 0.05043249804570867, 0.0940790398645174, 0.08240780748054509, 0.019496300742884495, 0.00561463278003524, 0.00993698972919803, -0.0031051889380981925, -0.016950887086338896, 0.01078792268693845, -0.011460976186857723, 0.005006641016999336, 0.02237004494809698, 0.05733310641875414, 0.020951269704967305, -0.0435893649484504, -0.0615925473527029, -0.05460862321810858, -0.05788897067666082, -0.11191240613795028, -0.004179503217108252, 0.004579664677327664, 0.09817597503957552, -0.02855865626766042, -0.17579953542108545, -0.28744990075543575, -0.1674037466687032, 0.003782122567846167, 0.057086737167993666, 0.13313041583654942, 0.14328468866579808, 0.01482902740919913, -0.04809499858713908, -0.008229552091316563, 0.0161445303636447, -0.013410392351267177, 0.007261562639723931, 0.00028055422098243734, 0.003642106179640676, -0.0067263610115628645, -0.01714806452729954, 0.019928616632977347, 0.06402840445073234, -0.04256980949954284, -0.08621285137575477, -0.06364544084215482, -0.051764100806917575, -0.07085550107187433, -0.07320624644910213, 0.050408173924464644, 0.06951461332216194, -0.09708797320144474, -0.2083068131854156, -0.3030953760238398, -0.09711645316499785, 0.0009038580931957931, 0.14011898348114768, 0.08204213131851229, 0.0232390312115873, -0.09067292751406367, -0.008854671781598678, 0.01774381350963466, 0.001596207751246803, 0.004651821210850939, -0.0007449410697697942, -0.0006735554838931292, -0.00729176927842758, -0.026851576542873734, -0.0008789642758364803, -0.04176010637777664, -0.012676867068882876, 0.007219636084222061, -0.024233998474856983, -0.0406908446942102, -0.016067633300970864, -0.01363863333912967, 0.033372496703668014, 0.03325125492026568, -0.021491296504996153, -0.16411329280787235, -0.21546070775316506, -0.24925294118786026, -0.030046879752484466, 0.10089002771915405, 0.1150889462099643, 0.035401234453624544, -0.0735685650474669, -0.05440565211175459, 0.006756087939673724, 0.020076427923679866, 0.0034958455279333507, -2.575262280684434e-05, -0.009576314466901745, 0.004380264275189352, -0.016411697528865826, -0.027328957257351048, -0.00850991423351456, -0.06115218432217346, 0.0546467510854892, 0.045180264903117696, -0.005339558742634835, 0.07451322723388737, 0.021155042038578355, -0.008255182978389022, 0.01207663634095207, 0.015309834191119582, -0.08758659284513011, -0.1307318190858167, -0.10579942317604425, -0.01016819538417759, 0.10729855625470573, 0.1957942335444475, 0.20177779085688793, 0.06339531191934134, 0.027031322709045808, -0.032810749874981705, -0.005467789806062757, 0.004653287272724073, 0.02181038969972641, 0.0032586452385863357, 0.000695618811300488, 0.0023086169262627183, 0.00594762984584869, -0.012942476400765892, -0.013246651247099605, -0.07384850038144572, 0.059429295898169046, 0.02097737813403224, 0.0396973053440755, 0.05382964614416191, 0.03762072314698817, 0.03839275506285678, 0.03963497528712218, -0.058858248057653544, -0.11784771143192499, -0.08991482889258379, 0.013389854924702408, 0.0476405554192613, 0.12080014728072419, 0.10013580220886296, 0.10617206696026713, 0.00966508991419377, 0.07875621430524106, -0.0342854086720613, 0.01941995361335912, 0.020996116669706143, 0.007286729826063992, -0.0051497435884323055, 0.004157571293791721, -0.0020227296519806236, -0.004458771587332934, 0.008805670122080498, 0.034005395161112645, -0.030052616851806248, 0.004437150017072386, -0.00042962905757878864, 0.06174100313664598, 0.045439888354309683, -0.0010929890743253754, -0.09393415261128113, -0.05519118964244539, -0.14707503026557617, -0.20318091656086226, -0.0490933442881823, 0.04686723628416877, 0.0694166012244739, 0.07205740939732405, -0.004473634961583949, -0.061557845072814, 0.038026489021814915, 0.026489848374350564, 0.012596255974572739, 0.0684232037965013, -0.000590679085507612, -0.005224113442861902, 0.008648172740657012, 0.009517113727645056, 0.00020077813184650082, 0.00262747918778301, 0.010236878123752593, 0.030461682233093295, 0.032308920084512444, -0.015575926614460512, 0.019168298794026928, 0.007584383449038529, -0.05876069587360959, -0.0699709457301109, -0.08664674892863798, -0.006210743637357135, -0.05806142183409644, -0.07635648759834024, -0.03270401959693902, -0.03419933691380063, 0.00028421568449530575, -0.062092452491106905, 0.010130418635616837, -0.022157155799242757, -0.02424415877799358, 0.02016425366055522, 0.03997490925873883, 0.0862783239790327, 0.004963296355520696, 0.00019835301592570386, 0.009752392208280305, 0.006440565092593212, -0.002228202382342946, -0.0007425190763163391, 0.012149733300790664, 0.02206242100296619, 0.09459011583764526, 0.00986652089163448, 0.04194684649507933, 0.06535430909913838, -0.03716585477131453, -0.09781278770251427, 0.02172006494831725, 0.06188844976687445, -0.03812138891186408, -0.07659844127475726, 0.01164066541397364, -0.00041835019802886046, 0.10657120467534104, 0.09577561958180505, 0.09606354927387802, 0.04673354903739506, 0.008644659818789925, 0.04836206054965718, 0.03737325199806702, 0.03926878017806087, 0.03294439515169513, -0.004015552870179986, 0.008161192078731642, -0.004861820017378251, -0.0007618600584413767, -0.012085992000568065, -0.004889343719238141, -0.0013561939162815256, 0.055639473301391705, 0.042423245317653895, -0.014652773206421013, -0.020510745349761546, -0.07173102527525542, -0.04787250792386476, -0.05967292703321394, -0.05603644056459406, -0.015330805077601189, -0.060864564649384924, -0.022532419593429734, 0.02650096600409742, 0.09803221285862092, 0.04246531970965759, 0.07075896915440205, 0.05154672247919574, 0.018658827248473623, 0.010638007940796296, 0.014840354309062206, 0.053969003843791094, 0.005576121382559093, -0.00093155426259745, 0.0052137529417093775, 0.011983765906999646, 0.008077119740691988, 0.019848293788864862, 0.006845730297708061, -0.0013759983858800731, 0.045732637222242876, 0.02648725537827232, 0.001143445487142248, 0.0064607574197802185, 0.02361168025769702, 0.03047733739357274, 0.033890800451757006, -0.024706088922653458, -0.0397071759772822, -0.04463705954217865, -0.03002747439889667, -0.028683657135690925, 0.0069103352054073475, -0.023015749011064297, -0.015252312758366996, 0.023371117316692266, 0.047056759978507674, 0.05493443916441234, 0.04210337787666544, -0.004294173600253814, -0.004820032439134137, 0.01108539406800466, -0.007443505811283737, 0.010372713232459831, 0.006324478425171161, 0.005438194738005364, -0.003399183789082925, -0.0021147893771700527, -0.010321271849589362, 0.002814491056360759, 0.018661937147559666, 0.03175055193941073, 0.014816312966860626, -0.02690067495495283, -0.013661666708243682, -0.0290650727881123, -0.03926623837099476, -0.06102490319241388, -0.12442965757001997, -0.11239338794366874, -0.10501844438104299, -0.05274691054791899, -0.021770648576112953, 0.01769616868324766, 0.019339735222290134, 0.021262694767463626, 0.028281774449831976, -0.0005920903440476907, 0.00023847723099526235, 0.0009534546310819081, 0.0035498630148941388, 0.010163343725311857, -0.0009582027150817865, 0.008444303465492214, 0.016022668839416436, -0.003398017085192412, -5.2304643102799915e-05, 0.0047825357304737744, 0.0230924036986794, 0.0048220898060613755, 0.0018532826754454035, 0.006429351250497012, -0.0028549430788516487, 0.010249223717643162, 0.00849119368333643, 0.00999961660462724, -0.022607530057005092, -0.03223935175524493, -0.009000087452896552, 0.0077875666531323495, 0.014623900507868048, 0.020733885673798025, 0.03052603423996519, -0.005210104215281486, 0.0018495565986284752, 0.0038604651871324436, 0.02131254760431181, 0.0005081745635197744, -0.006907409547046289, -0.004688910069537599, 0.010047692363640873, -0.00044207226703697126, -0.004342440582992281, 0.0008272397833784013, -0.0167005700396424, -0.01459210308758035, -0.0031447170843968255, 0.00800570694954256, 0.0028546681589044836, -0.0040298789513083695, 0.0005212560384572453, 0.0027435847275513216, -0.004838326631324596, 0.0009218954234637543, 0.014949004564971878, -0.009363406692638784, 0.011493072584842817, 0.005816917938487178, 0.0010314117557297803, 0.008862277491086073, 0.00016728610013030303, 0.0036277134304141443, -0.0008630072929067296, -0.0083984121197377, 0.017539985995289286, -0.009585101442350552, 0.012479288569844631], [0.01741147623292637, 0.0009718623975019918, 0.0030933532650608726, -0.007548737620462335, -0.0014788420232392052, -0.0010251261699232874, -0.010392799181189145, 0.004456203714434902, 0.0009032174306097206, -0.005675752082536004, -0.006426193339817404, -0.010652538565444904, 0.011008068016815338, 0.006804180024605935, -0.0008220571538259529, -0.0056990924115368526, -0.0022488606374391445, 0.004598855870509929, -0.011788961708896404, -0.010591303129895945, 0.004648913535135994, 0.01691325158910293, 0.0011675431550802766, -0.0016667101519154208, 0.0041927049879632635, 0.01331533441746109, -0.004114618012013207, -0.0066837393977893155, -0.005204628833432604, -0.0018089463979326238, 0.008633502040335755, -0.0015785990753636645, -0.001219434048145787, 0.014829381241657062, -0.001250398559741525, -0.002099142851088222, 0.0031533882264461583, 0.002076353533871554, -0.0025676877739584797, 0.0017350886811865124, -0.002318715322264024, 0.002041932128716153, 0.0029145049348519325, 0.007512643067980604, 0.010415027531210479, -0.006686024141730195, 0.00817388766117801, 0.000373894811619053, -0.001268794330199788, -0.007362491472643579, 0.0010397908327285201, -0.0027762179098957448, -0.014463251519515689, -0.000630646577146115, -0.014542992309001909, -0.025233149775338876, -0.005961879196867845, -0.007093627830844056, 0.006470669513572123, -0.006479888350655207, -0.009066187062392962, 0.01619925232586488, 0.0017949887509047418, -0.002255802808798612, 0.0015018174329298212, -0.010719102041929574, -0.0033755768846889397, 0.0045300992222902636, 0.008598940149044087, 0.011453752160468905, -0.006150392898235755, -0.0013241340830381207, 0.00015465066886797264, -0.004364429747415795, -0.0032339376742225954, 0.00027959205344476056, 0.0014106654145890375, -0.015130571973759492, 0.0032671980476211065, 0.007123849281787394, -0.008811893484247097, -0.005468170477540866, -0.0031591825603958356, 0.01364262435682977, -0.0032762913728402758, 0.0060335146349911615, 0.0005064963222938504, -0.009404069217803922, -0.00043935734856803146, 0.0016880971883723335, 0.0030720835920880515, 0.0013199182065985315, -0.004357007976413314, -0.0012517351858062319, 0.00863649526552854, 0.005096223795422566, 0.0037753867019587614, 0.0015839868187141758, 0.003935677892911759, 0.00829792481808584, 0.005111625113475982, -0.005252113498495846, -0.0017233353413576204, 0.000297164002570871, -0.0010426194976166476, 0.005310825100412229, -0.01129765626109864, -0.006252891481577205, 0.007254056372715854, -0.0033348535727761976, -0.007133695071004831, -0.009714273628274152, 0.0023806907654500215, -0.0020917389682692136, 0.0008122643711271141, -0.00713909739611613, 0.006893404577010206, 0.0005096653368843403, -0.01092230028142478, 0.0020669377693793493, -0.004864032931408208, -0.001881713903925581, -0.007904184527590405, -0.004206783606353646, -0.0028459911129178426, 0.0009140734813794814, -0.0061881744360698715, -0.01390129954511839, -0.007624954289792019, -0.005987854057258244, 0.003440902264811378, -0.013374207022066001, 0.005738057215370019, -0.0010070804211906887, -0.01851970238182753, -0.000909563223638118, 0.000893019747292675, 0.0023439936986262623, 0.0015390724366663884, -0.0049398304912136835, 0.0010148316706925114, 0.011435782379800743, 0.0018786464436705594, 0.002448014455603482, 0.009871125972059854, -0.0020920178893776066, -0.013852521556529426, 0.0011964053783766566, -0.017236751625940933, -0.00490868194409309, 7.795754143608305e-05, -0.006485383671960044, -0.012412619439932472, -0.004827512213186471, -0.00435718553081805, -0.0026723036969307544, 0.0004843792111953914, 0.006031898090985936, 0.0021983218892106717, -0.0034239220580388223, 0.014902862424764804, -0.008565050873024775, 0.01127115367927503, -0.0032602972845594486, 0.004771614677283462, -0.010341343926178949, -0.009634827099910651, 0.0031268801683777925, -0.0066980615681926986, -0.0055216780573430655, 0.0005693589332927299, 0.01712071896468911, 0.001152170228052445, -0.012804399464683069, -0.00847105662414289, -0.016239667159607594, 6.027210109301907e-05, 0.007826055028833923, 0.008713350902473849, -0.007601535770467506, -0.006320845491864751, 0.013487779490244036, -0.016068656191923783, -0.0036800260027095772, -0.0012428605720105244, 0.0024154221323400738, 0.004917177663398797, 0.0033446033157000293, -0.01634174982552671, 0.008651845536220962, -0.005381022487735247, 0.00811779400576079, -0.0006038860414548286, 0.007854240095628564, 0.0059174422586854075, -0.01128661810531241, -0.01973266808252046, -0.006169742340242559, 0.005715313576678303, 0.004811172923186428, -0.008378774386534518, 0.014592307003107532, 0.006371362847372631, -0.014362118910728087, 0.007483601426014685, 0.0020046151394331516, 0.0001888095620956101, 0.015605722587956169, 0.0006122437317674796, 0.004424271842297933, 0.009156220101266058, -0.012848408209778431, 0.002618415953192946, -0.017254687456944463, 0.008175507161177325, -0.0027162054052878738, 0.014204315270291203, 0.010073481437148226, 0.011753139154014916, 0.007933157760087317, -0.005555401789306718, -0.002758051098607077, -0.006060196272055012, -0.011928791262737232, -0.003938820855503178, 0.0005695669839360732, 0.0012547862931960487, -0.0022932655678848065, 0.01254780816146523, 0.02314600026207863, 0.009718091942124708, -0.02254035162841208, 0.003962364988988017, -0.013881272442109948, -0.0053909343792337815, -0.009368939065791487, 0.015137165087878577, 0.007463903441009775, -0.009949804575975534, -0.0004616128068071807, 0.006912383680510149, 0.006480235105158093, -0.0037083765431449147, 0.012533804523984922, 0.0077264641978046795, 0.003827386169452586, 0.004462673579693055, -0.003812945594565474, 0.0001632725023726046, 0.0070756323083542, -0.015130041727891558, 0.001209564945077036, -0.004235676991241961, 0.020627425351565143, -0.003208691552976035, 0.006245439547116445, 0.0033267753610397017, 0.011692536468434786, 0.003934643910276763, 0.0012012975827398202, -0.005905291882996787, 0.015367853432729901, 0.006725110361556793, 0.00033859768222316506, -0.0020842992273551737, 0.005559086941604564, 0.008093886679821612, 0.0006845888903770264, 0.0068402737128445265, -0.009699115491586287, 0.012532336075056192, -0.009648165545275124, 0.001626153747708606, 0.0010651559573803175, -0.0018687653913951718, -0.006293312446255992, 0.0057755880908997165, -0.004198723480508934, -0.006749418590665431, -0.020164994654738012, -0.00275192739348305, 0.006619410439235589, 0.004256063248422114, 0.007947207501410047, 0.0026998685527531642, -0.0027825739299699994, -0.00888125975046957, 0.005788969129636331, -7.594411374540561e-05, -0.021477920788441365, 0.004462595238878474, -0.01196685546128064, 0.012893229684339202, -0.0008541457522270702, -0.012603210450907601, -0.016835568287004367, -0.003089566201549077, 0.0005917266845233454, -0.002483196553458922, -0.00428120199873812, -0.016725506430169974, -0.0036255272842936775, 0.016784528130470662, -0.0017761095608062535, -0.013205167341473192, 0.013043941914464669, 0.009832320716685798, -0.002357731540058279, -0.00015664902460111785, -0.005457216410148433, -0.0034228624127009533, 0.0013050398799613603, -0.017241259153843287, -0.007827699057756966, -0.0077326413753243065, 0.0035710522732411466, 0.006728387371398831, -0.0018917162593926542, -0.0057198348483617194, -0.002016561907411256, -0.004011657877738803, -0.01447479255390446, 0.00012364095490481486, -0.010722203944342024, -0.008977124987410223, 0.005402005945422836, 0.0022480819987939775, -0.01487289534534251, -0.012896092334713012, -0.008041496499028798, -0.010810479378644959, 0.007463147825223141, 0.00253041849600846, 0.009448069575171063, -0.004606922865553171, -0.0011213711630311562, -0.0006306338111072006, -0.007307188836970322, -0.011838032991778647, 0.0050950018684494435, 0.003161876392448625, 0.007370011494683067, -0.013042896448817412, 0.00844745808395887, -9.13080874685482e-05, -0.006172250607144877, 0.008328408086326932, -0.008346317680566854, -0.022433965046546708, 0.01070872032418406, 0.00437170210581741, 0.0015735640190461687, -0.010158184516810383, 0.0030550508164201387, 0.024390755142964626, 0.006679773442775756, -0.000883248111523745, -0.0013323438909706767, 0.002429151244403985, 0.009807160549980931, 0.008224635966711349, 0.0003289668073769093, -0.00014972079762953173, -0.013796475778158127, 0.011774470073696103, -0.001698675154618477, -0.007891342432137875, 0.002195387260523916, 0.005741511811835717, -0.007397765442723566, 0.0006207906983253745, -0.01322406204065846, 0.004603359962197524, 0.0005158466517440567, 0.005190672356820297, 0.004474687789194849, 0.0013476755495418016, 0.0021791641907692345, 0.013872190989996421, 0.012533405916620754, -0.0052218962928196454, -0.01307098771967319, 9.298748382124283e-06, 0.008496354115937094, -0.008311096255562927, -0.008140773461206754, 0.006629606848185305, 0.0019959043246273733, 0.013058109328967846, 0.009424477365527073, 0.0023456587438833473, -0.00638879914109363, -0.013896648420723724, 0.0035572074529412133, 0.0033757037714044094, 0.0026937133102485095, -0.0028560979268080385, -0.007483676762693674, 0.009007655821144106, -0.00031307598838376514, -0.002932969363203336, -0.003679558480477367, -0.011880630266898921, 0.011797776420032336, 0.011299574968893694, -0.004795476496222422, -0.003173204215990835, 0.007239310430132705, 0.007933574767470626, -0.014850239330081436, -0.003505628518076928, -0.009294269803281253, 0.00036506311951035517, -0.013457709981299255, -0.004553367676404658, -0.001471736823728296, -0.0013014191277390032, 0.006780147631873473, -0.011030629888751933, -0.0059866488288453906, -0.002196287386451086, -0.0013648266342101572, 0.0006474869867530969, -0.015509149036320191, 0.002747341385009267, -0.00033370168562194284, 0.005696607093815096, -0.000903770983125263, -0.0008084432129145864, -0.00641688088689765, 0.006637990623818383, -0.0016448264572590065, -0.011922624816875548, 0.011143466463243896, -0.003926303271197936, -0.010051503116510185, 0.011944895530517127, -0.000674690359402805, -0.005802680067590134, 0.0007907093440358145, -0.005676944203942817, -0.010053070509782986, 0.003365022553430506, 0.0030619610092034017, -0.006451078486766265, 0.002140148271037041, 0.014833130230971079, 0.0030460756463146547, 0.009248597522729015, 0.0025275596706593605, -3.298169034509951e-05, -0.002551562862218082, 0.0017065052010630764, -0.0031377244770511388, -0.005825200566343127, -0.00934660048119359, 0.00021866402093915054, 0.004498506593813808, -0.0011014694740106303, 0.005407165928297338, 0.0037601988796711404, -0.005105041973296271, -0.015539204129019539, -0.007605442580927418, 0.011020951345361307, 0.015530025185561815, 0.00125687051800357, -0.0040630647947412675, 0.011645440049763891, -0.006003068130238719, 0.0013898773754002904, -0.0063713214764039875, 0.0006911010962085196, 0.005009575075656899, -0.010232400007983955, -0.009435964153576585, 0.012355224822077892, -0.005980357771013526, -0.0017870753810449295, -0.01420601154423786, 0.0022035598658780905, 0.005587416845007126, -0.002702794052228892, -0.007197910991295131, 0.00284717611618358, -0.012798432452901635, -0.0021594872935692512, 0.00026684540594174505, 0.0037091990203636147, 0.01034511411221928, 0.00466962921969666, -0.007149570168852404, -0.005806571884983485, -0.003954433778777713, -0.0007816620404717776, 0.0021679025073786445, -0.0011840406048189787, 0.003310038905320121, -0.012973369513955231, 0.009245076859731189, -0.0028845859373483685, 0.007209168726789516, 0.0064938677135067315, 0.009197499121005776, 0.005507140774478068, -0.0027605856971397546, -0.00026774859978840666, 0.00588888797971778, -0.004098582354505373, 0.017880379203628897, -0.001475159931377061, 0.010667060280770076, -0.0006998648802504659, 0.0075490289754297744, 0.003965148698282379, 0.010608429740124522, -0.0025278458726173732, 0.004013264526053908, -0.003937803117869868, 0.0077602533118926315, -0.011618182884656577, 0.0020010182032067702, 0.004729531778680924, -7.548310911946616e-05, -0.0036972641128940904, 0.0034971624848886876, -0.007036396782974361, -0.0014148865029559904, 0.007189560749530793, -0.013371867119759165, 0.0011976676898745574, 0.008814412458757559, -0.011603454808611788, 0.005854253407217333, -0.00528734545949515, -0.0001244393379916093, 0.01204160379680975, -0.002105975194671407, 0.002829214502524648, -0.003205947825965209, 0.002294087388841274, 0.010507598372023577, 0.026777593332757563, 0.0004160698759970935, 0.011469688729696866, 0.0059728647763057, -0.0017438929172026725, -0.0018104160269157674, 0.005462633876031492, -0.009079571782828167, 0.013400810279094622, -0.004290960666801955, -0.006189660267451344, -0.005458227710964593, -0.0002794275056506757, 0.016421134246511142, 0.0022880985058854864, -0.0047905974642894495, -0.019161728303462126, 0.012877984359919152, -0.013334305385096374, -0.003034100251445212, 0.01145801839184047, 0.005579201648920387, 0.014326209877469048, 0.0030061253383428708, 0.00671848363933188, 0.0006640644654829644, 0.0062903517389111905, -0.0059206116561936264, 0.007457754124718257, -0.002081790097035398, 0.004705575561506901, 